<?xml version="1.0"?>
<opencv_storage>
<my_svm type_id="opencv-ml-svm">
  <svm_type>C_SVC</svm_type>
  <kernel><type>RBF</type>
    <gamma>5.0625000000000009e-01</gamma></kernel>
  <C>6.2500000000000000e+01</C>
  <term_criteria><epsilon>9.9999997473787516e-06</epsilon>
    <iterations>2147483647</iterations></term_criteria>
  <var_all>20</var_all>
  <var_count>20</var_count>
  <class_count>2</class_count>
  <class_labels type_id="opencv-matrix">
    <rows>1</rows>
    <cols>2</cols>
    <dt>i</dt>
    <data>
      -1 1</data></class_labels>
  <sv_total>4835</sv_total>
  <support_vectors>
    <_>
      -2.48419633e-03 1.86034443e-03 1.13069173e-03 -3.33857257e-04
      8.74240650e-04 1.97471213e-03 5.06335986e-04 2.84666871e-03
      2.38793017e-03 2.33757822e-03 2.74360925e-03 2.14148872e-03
      1.88126054e-03 1.51928049e-03 1.14504283e-03 7.07692700e-04
      6.92366972e-04 1.04243110e-04 1.29256514e-04 -1.64925761e-04</_>
    <_>
      -2.55737081e-03 1.71490270e-03 9.68033099e-04 -5.45849034e-04
      4.60832962e-04 1.36202388e-03 -2.07484292e-04 1.79306651e-03
      1.28848269e-03 1.11358042e-03 1.67292939e-03 1.21866551e-03
      1.02148880e-03 8.51588266e-04 6.08414528e-04 3.13819270e-04
      2.87915929e-04 -1.15441740e-04 1.41935889e-05 -1.70707121e-04</_>
    <_>
      -2.46488024e-03 1.82820461e-03 1.06380717e-03 -3.60540231e-04
      8.56974977e-04 1.88359851e-03 5.68395189e-04 2.72547593e-03
      2.33924482e-03 2.30301102e-03 2.68582627e-03 2.17133923e-03
      1.93751184e-03 1.59810251e-03 1.22685544e-03 7.93942425e-04
      8.18534638e-04 2.54633429e-04 3.01709690e-04 -3.81385908e-05</_>
    <_>
      -2.40912172e-03 1.87531626e-03 1.18819939e-03 -2.28437930e-04
      1.09605491e-03 2.17651855e-03 9.76625830e-04 3.28693003e-03
      2.92329816e-03 2.96095759e-03 3.18956515e-03 2.49116006e-03
      2.20345031e-03 1.69806078e-03 1.25188730e-03 7.33309775e-04
      6.22289255e-04 -1.05718500e-05 -1.70892279e-04 -5.02057374e-04</_>
    <_>
      -2.41057808e-03 1.97333307e-03 1.26615516e-03 -1.32724803e-04
      1.24519994e-03 2.49373331e-03 1.17538287e-03 3.76975536e-03
      3.36656254e-03 3.43866739e-03 3.65594728e-03 2.88391672e-03
      2.57575605e-03 2.01491918e-03 1.52271776e-03 9.71323345e-04
      9.08029382e-04 2.12379266e-04 1.27251958e-04 -2.57225649e-04</_>
    <_>
      -2.34157033e-03 1.86838652e-03 1.22341444e-03 -1.45849204e-04
      1.27030851e-03 2.31473474e-03 1.37476111e-03 3.61871347e-03
      3.34659312e-03 3.48481466e-03 3.55935399e-03 2.81597115e-03
      2.53633060e-03 1.92595809e-03 1.44811638e-03 8.89992982e-04
      7.85924960e-04 1.13700400e-04 -1.67446793e-04 -5.29422774e-04</_>
    <_>
      -2.50064139e-03 1.81482313e-03 1.08267169e-03 -3.95371404e-04
      7.59467832e-04 1.79427909e-03 3.12675431e-04 2.53501232e-03
      2.07665563e-03 1.98460068e-03 2.43204366e-03 1.88579480e-03
      1.64435746e-03 1.34588114e-03 1.01103203e-03 6.32647774e-04
      6.28907059e-04 1.09240413e-04 1.94312306e-04 -6.85737468e-05</_>
    <_>
      -2.46303296e-03 1.87877973e-03 1.15609844e-03 -2.92363955e-04
      9.56151925e-04 2.07681581e-03 6.58060948e-04 3.02163581e-03
      2.58719455e-03 2.54391925e-03 2.90309079e-03 2.26573413e-03
      1.97646255e-03 1.55576982e-03 1.13707723e-03 6.67465676e-04
      5.87621180e-04 -1.12557318e-05 -3.42173735e-05 -3.31478077e-04</_>
    <_>
      -2.56048376e-03 1.72844087e-03 9.77509655e-04 -5.48861921e-04
      4.65761201e-04 1.38155324e-03 -2.21563707e-04 1.80487114e-03
      1.29095477e-03 1.09878276e-03 1.68229814e-03 1.23640848e-03
      1.02526566e-03 8.62881541e-04 6.14830875e-04 3.11927754e-04
      2.90364143e-04 -1.23365957e-04 1.78939081e-05 -1.56453287e-04</_>
    <_>
      -2.47730245e-03 1.86838803e-03 1.13816001e-03 -3.19431245e-04
      9.03724635e-04 2.01362092e-03 5.63384499e-04 2.91207084e-03
      2.46368186e-03 2.42241449e-03 2.81350920e-03 2.20683124e-03
      1.94293982e-03 1.56623335e-03 1.18142576e-03 7.39940326e-04
      7.27259205e-04 1.34292583e-04 1.58161274e-04 -1.39758689e-04</_>
    <_>
      -2.62167607e-03 1.61263766e-03 8.48858734e-04 -7.32600922e-04
      1.14055467e-04 8.58251820e-04 -8.53273668e-04 8.90574651e-04
      3.33192991e-04 1.62660144e-05 7.54193868e-04 4.51752217e-04
      2.99191568e-04 3.37864389e-04 2.27423152e-04 8.31729267e-05
      1.15260715e-04 -1.08971959e-04 2.28511926e-04 1.62857410e-04</_>
    <_>
      -2.45731557e-03 1.89897930e-03 1.17685250e-03 -2.67415628e-04
      9.99295153e-04 2.14364217e-03 7.25350576e-04 3.14341299e-03
      2.70658825e-03 2.69106543e-03 3.03820404e-03 2.38425471e-03
      2.10898626e-03 1.68929715e-03 1.28390081e-03 8.23138806e-04
      8.03551287e-04 1.98526192e-04 2.25964119e-04 -9.21106548e-05</_>
    <_>
      -2.36815982e-03 2.06172676e-03 1.36303820e-03 -8.60850560e-06
      1.48727617e-03 2.85028340e-03 1.59672438e-03 4.38142661e-03
      4.00549546e-03 4.14900947e-03 4.27095592e-03 3.39841936e-03
      3.05451220e-03 2.37519131e-03 1.80517649e-03 1.17052603e-03
      1.10415940e-03 3.16075224e-04 1.65362610e-04 -2.74642953e-04</_>
    <_>
      -2.39600264e-03 2.00509420e-03 1.30280654e-03 -5.91926946e-05
      1.36451772e-03 2.67800945e-03 1.36276998e-03 4.08133259e-03
      3.67436395e-03 3.78348865e-03 3.95067176e-03 3.16650467e-03
      2.82369833e-03 2.20926665e-03 1.67840812e-03 1.08621840e-03
      1.00208679e-03 2.46821844e-04 1.31308334e-04 -3.15951533e-04</_>
    <_>
      -5.46376733e-03 -5.16942628e-02 -4.52280492e-02 5.32033592e-02
      -1.08071743e-02 -1.27213402e-02 -2.44204998e-02 2.99818069e-02
      -2.92056985e-02 1.99110452e-02 -6.09142818e-02 1.04876887e-02
      8.22552573e-03 -2.62694191e-02 2.75997375e-03 5.41930199e-02
      2.11843476e-02 3.95310819e-02 5.64380698e-02 -1.73503608e-02</_>
    <_>
      -2.43848050e-03 1.85056403e-03 1.13869389e-03 -2.12744621e-04
      1.01097953e-03 2.14247406e-03 7.80655944e-04 3.20962607e-03
      2.75804894e-03 2.81015993e-03 3.06837168e-03 2.41775345e-03
      2.16259365e-03 1.69064058e-03 1.30267872e-03 8.61295790e-04
      8.23691837e-04 2.46331561e-04 2.34095729e-04 -1.09926099e-04</_>
    <_>
      -2.42467015e-03 1.94873835e-03 1.23782689e-03 -1.74003653e-04
      1.17165525e-03 2.38924753e-03 1.04791112e-03 3.58426338e-03
      3.17212613e-03 3.21139907e-03 3.45914857e-03 2.70378124e-03
      2.38768198e-03 1.83990481e-03 1.34743995e-03 7.88102916e-04
      6.63370127e-04 -2.34717736e-05 -1.60255702e-04 -5.23643685e-04</_>
    <_>
      -2.30091857e-03 2.00001919e-03 1.33130187e-03 1.62484663e-04
      1.62918994e-03 3.00205522e-03 1.89822027e-03 4.77762241e-03
      4.39257128e-03 4.68926597e-03 4.59074508e-03 3.69017408e-03
      3.36465216e-03 2.53788964e-03 1.98202720e-03 1.37476996e-03
      1.27432216e-03 5.37138956e-04 3.54166608e-04 -1.53086730e-04</_>
    <_>
      -2.14575417e-03 7.87317578e-04 1.36529488e-05 1.21479877e-03
      6.91906316e-04 1.71963684e-03 3.82712489e-04 3.85911786e-03
      2.44893041e-03 4.07390110e-03 2.67686392e-03 2.55430792e-03
      2.67773587e-03 1.72221067e-03 2.35004886e-03 3.05058016e-03
      3.37842898e-03 4.39487258e-03 5.55039942e-03 4.51641716e-03</_>
    <_>
      -2.54499214e-03 1.72878010e-03 9.86041734e-04 -5.15765452e-04
      5.17691078e-04 1.44939660e-03 -9.72059788e-05 1.99154741e-03
      1.53896934e-03 1.50506070e-03 2.08507152e-03 1.82034436e-03
      1.84333336e-03 1.95145968e-03 1.96164241e-03 2.02416163e-03
      2.89735291e-03 2.59674992e-03 3.41368979e-03 3.00947065e-03</_>
    <_>
      -2.51653278e-03 1.77088042e-03 1.03530055e-03 -4.34075773e-04
      6.60143676e-04 1.64331368e-03 1.32177578e-04 2.28774501e-03
      1.80717139e-03 1.69509545e-03 2.16900324e-03 1.67367235e-03
      1.45057542e-03 1.20584760e-03 9.18833015e-04 5.94084791e-04
      6.01084204e-04 1.39479176e-04 2.96831946e-04 5.35113504e-05</_>
    <_>
      -2.46278569e-03 1.90574932e-03 1.17994181e-03 -2.69395707e-04
      9.97006893e-04 2.15219846e-03 7.16370996e-04 3.15256370e-03
      2.70674773e-03 2.68994528e-03 3.04490095e-03 2.38854927e-03
      2.11091386e-03 1.69347180e-03 1.28328695e-03 8.12989310e-04
      7.95177766e-04 1.77432899e-04 1.88706792e-04 -1.29170076e-04</_>
    <_>
      -2.45249178e-03 1.91839901e-03 1.19829550e-03 -2.41904840e-04
      1.04817702e-03 2.22864025e-03 8.07104749e-04 3.28531116e-03
      2.84514972e-03 2.84456625e-03 3.17789475e-03 2.50511849e-03
      2.21977197e-03 1.77019567e-03 1.34503434e-03 8.57807812e-04
      8.43721384e-04 2.04628333e-04 1.89652899e-04 -1.43805752e-04</_>
    <_>
      -2.50948686e-03 1.80097041e-03 1.06628239e-03 -4.09987813e-04
      7.24501442e-04 1.75541895e-03 2.50082521e-04 2.46764068e-03
      1.99290109e-03 1.90633419e-03 2.37015658e-03 1.83713378e-03
      1.60394493e-03 1.30419724e-03 9.80292447e-04 5.95304416e-04
      5.93824778e-04 6.29882561e-05 1.26175233e-04 -1.23228179e-04</_>
    <_>
      -2.58502457e-03 1.66825519e-03 9.11361596e-04 -6.20745239e-04
      3.21075961e-04 1.16675592e-03 -4.44227830e-04 1.45111349e-03
      9.29397240e-04 7.21354329e-04 1.33960508e-03 9.50179237e-04
      7.75307184e-04 6.64717401e-04 4.59499832e-04 2.00988055e-04
      1.86272315e-04 -1.87807076e-04 -5.38093736e-05 -2.07750010e-04</_>
    <_>
      -2.60171667e-03 1.63253711e-03 8.93611810e-04 -6.51676673e-04
      2.61299952e-04 1.09661464e-03 -5.67918469e-04 1.29876216e-03
      7.74630345e-04 5.24916803e-04 1.19718106e-03 8.63953086e-04
      6.82006706e-04 6.18094113e-04 4.22081386e-04 1.69650302e-04
      1.61291740e-04 -2.16684304e-04 -4.94482229e-05 -2.00682436e-04</_>
    <_>
      2.47499812e-03 -1.21261589e-01 3.81976068e-02 2.44905371e-02
      -2.57606730e-02 2.49686223e-02 4.55087051e-03 -4.30537015e-02
      1.36215053e-02 -9.70989019e-02 -9.01288446e-03 7.71471411e-02
      5.30769229e-02 5.72800376e-02 1.04055116e-02 2.27502771e-02
      2.84271501e-02 -4.34348509e-02 3.54987457e-02 4.21835631e-02</_>
    <_>
      -2.34237802e-03 1.90889405e-03 1.35424291e-03 -5.99323830e-05
      1.37114385e-03 2.65133637e-03 1.45676604e-03 4.06999607e-03
      3.72611033e-03 3.79983615e-03 3.97783238e-03 3.08291521e-03
      2.78501073e-03 2.13024742e-03 1.63920503e-03 1.06089551e-03
      1.00709032e-03 2.98870902e-04 5.46405790e-05 -3.05596855e-04</_>
    <_>
      -2.33063148e-03 2.11977935e-03 1.43062486e-03 9.33172705e-05
      1.67579448e-03 3.11751477e-03 1.93056033e-03 4.85336222e-03
      4.50155511e-03 4.70692664e-03 4.74055391e-03 3.79424985e-03
      3.42400186e-03 2.64732121e-03 2.01945915e-03 1.32701243e-03
      1.24894490e-03 3.96658666e-04 1.97655754e-04 -2.87276984e-04</_>
    <_>
      -2.41254759e-03 1.56496337e-03 1.13243540e-03 -4.01041965e-04
      6.97654730e-04 1.61908707e-03 3.49457696e-04 2.32334388e-03
      1.95680745e-03 1.78844738e-03 2.24125409e-03 1.53578981e-03
      1.38481415e-03 1.05058833e-03 8.40011344e-04 5.47563017e-04
      5.61100314e-04 2.05019664e-04 1.00029516e-04 -3.54388030e-05</_>
    <_>
      -8.46857671e-04 -2.82834796e-03 4.53583663e-03 7.84835138e-05
      8.75253987e-04 2.27318611e-03 2.94676446e-03 4.00088495e-03
      4.65866458e-03 1.82037649e-03 4.05743811e-03 -2.05609063e-03
      -1.03031041e-03 -2.16527563e-03 -3.41121078e-04 2.90115073e-04
      1.44497119e-03 3.51450685e-03 -3.10581177e-03 -6.08733331e-04</_>
    <_>
      -2.47328635e-03 1.85479713e-03 1.13837968e-03 -3.18389037e-04
      8.97245831e-04 1.99318491e-03 5.47572097e-04 2.88586109e-03
      2.44729524e-03 2.40426441e-03 2.80232821e-03 2.21978710e-03
      1.98060903e-03 1.65228161e-03 1.30862370e-03 9.28452821e-04
      1.01556303e-03 4.66798490e-04 6.16496603e-04 2.97452672e-04</_>
    <_>
      -2.43439456e-03 1.91744836e-03 1.21552695e-03 -2.06092169e-04
      1.10661052e-03 2.29927897e-03 9.15585086e-04 3.40782572e-03
      2.98865978e-03 2.99145817e-03 3.29192076e-03 2.60113645e-03
      2.28939252e-03 1.79684907e-03 1.33641250e-03 8.16039566e-04
      7.37875118e-04 7.69709004e-05 3.42623098e-05 -3.06071714e-04</_>
    <_>
      -2.40834360e-03 2.00472889e-03 1.29292707e-03 -1.12753783e-04
      1.29560579e-03 2.58911820e-03 1.23809767e-03 3.90568865e-03
      3.49085941e-03 3.55329202e-03 3.77736287e-03 2.98403855e-03
      2.63591972e-03 2.03284039e-03 1.49813283e-03 8.85928748e-04
      7.66086741e-04 1.75434980e-05 -1.45835569e-04 -5.26531250e-04</_>
    <_>
      -2.44605239e-03 1.92163140e-03 1.20671256e-03 -2.26545468e-04
      1.07659772e-03 2.26360932e-03 8.61804292e-04 3.35063692e-03
      2.92234961e-03 2.92748562e-03 3.24271200e-03 2.55403994e-03
      2.25585001e-03 1.78831827e-03 1.34035968e-03 8.28503282e-04
      7.69699109e-04 1.08481385e-04 6.27593836e-05 -2.85207760e-04</_>
    <_>
      -2.52813054e-03 1.78003777e-03 1.03947043e-03 -4.58069728e-04
      6.38601021e-04 1.63477275e-03 9.47925146e-05 2.25480972e-03
      1.76757621e-03 1.64676527e-03 2.15468579e-03 1.65155646e-03
      1.42646849e-03 1.18001341e-03 8.78943363e-04 5.19071938e-04
      5.17008710e-04 9.89198452e-06 9.15055862e-05 -1.45004771e-04</_>
    <_>
      -2.62041786e-03 1.59992301e-03 8.38731590e-04 -7.33009714e-04
      1.12502370e-04 8.59042862e-04 -8.36678606e-04 9.02421016e-04
      3.52516363e-04 6.15145545e-05 7.94561463e-04 5.11143939e-04
      3.71040776e-04 4.00221761e-04 2.88181414e-04 1.33351481e-04
      1.90274091e-04 -7.67980237e-05 2.20880087e-04 1.38803909e-04</_>
    <_>
      -2.56329728e-03 1.70384569e-03 9.54089919e-04 -5.64208138e-04
      4.25176753e-04 1.31259114e-03 -2.71934259e-04 1.70097372e-03
      1.18937797e-03 1.00199901e-03 1.57870422e-03 1.14222034e-03
      9.47275839e-04 7.89589831e-04 5.56920888e-04 2.70804507e-04
      2.47599790e-04 -1.45253376e-04 -9.01008025e-06 -1.78424933e-04</_>
    <_>
      -2.50944309e-03 1.75393641e-03 9.90399742e-04 -4.66693076e-04
      6.46642700e-04 1.58266176e-03 1.94062741e-04 2.20457558e-03
      1.78466411e-03 1.69138936e-03 2.15886883e-03 1.72194280e-03
      1.51881727e-03 1.27300178e-03 9.67831875e-04 6.05262525e-04
      6.35397679e-04 1.61410309e-04 2.62780057e-04 -5.36907464e-06</_>
    <_>
      -2.35954067e-03 1.96586805e-03 1.28969643e-03 -8.68916541e-05
      1.36511133e-03 2.56766658e-03 1.45157170e-03 3.96875478e-03
      3.63885937e-03 3.76964873e-03 3.88295250e-03 3.08422022e-03
      2.76508927e-03 2.13291333e-03 1.61128037e-03 1.01052248e-03
      9.20025865e-04 1.88169826e-04 -2.78414227e-05 -4.26977698e-04</_>
    <_>
      -2.44585681e-03 1.90957834e-03 1.19269465e-03 -2.37305852e-04
      1.04557874e-03 2.19903071e-03 8.16514774e-04 3.25239054e-03
      2.82335747e-03 2.82453001e-03 3.13054142e-03 2.43872614e-03
      2.16115196e-03 1.71106518e-03 1.29301182e-03 8.25244293e-04
      7.86224497e-04 1.92859909e-04 2.08204321e-04 -1.14526949e-04</_>
    <_>
      -2.30599986e-03 1.93423848e-03 1.29510171e-03 -4.59474104e-05
      1.46268751e-03 2.59291870e-03 1.71247812e-03 4.10171738e-03
      3.85294971e-03 4.04943526e-03 4.03774064e-03 3.21171526e-03
      2.89214728e-03 2.17602751e-03 1.63110951e-03 9.90650035e-04
      8.50361306e-04 1.05738814e-04 -2.61707813e-04 -6.67343149e-04</_>
    <_>
      -2.55909842e-03 1.70985959e-03 9.66280815e-04 -5.57325373e-04
      4.51520114e-04 1.34524959e-03 -2.27744022e-04 1.75940129e-03
      1.26528519e-03 1.07915397e-03 1.65752461e-03 1.23431056e-03
      1.04496512e-03 9.09947383e-04 6.79119374e-04 4.13552392e-04
      4.34332062e-04 4.28094645e-05 2.27883284e-04 3.97631666e-05</_>
    <_>
      -2.55387602e-03 1.71537499e-03 9.73303337e-04 -5.47014817e-04
      4.70653176e-04 1.36835466e-03 -1.96592533e-04 1.79374323e-03
      1.30150095e-03 1.11000566e-03 1.67802197e-03 1.24024623e-03
      1.03699043e-03 8.79733649e-04 6.33162621e-04 3.51557625e-04
      3.32871918e-04 -5.62820351e-05 1.08732143e-04 -6.37976918e-05</_>
    <_>
      -2.57633463e-03 1.69436960e-03 9.43483203e-04 -5.98268991e-04
      3.70959286e-04 1.23562233e-03 -3.91208683e-04 1.55599788e-03
      1.03356841e-03 8.08406272e-04 1.43166573e-03 1.02455239e-03
      8.34964681e-04 7.35894428e-04 5.31237631e-04 2.83446803e-04
      2.85470858e-04 -6.74370676e-05 1.45326892e-04 -3.24909342e-06</_>
    <_>
      -2.47492036e-03 1.86690409e-03 1.14201487e-03 -3.15074809e-04
      9.09842434e-04 2.01397762e-03 5.71166223e-04 2.92243110e-03
      2.47589918e-03 2.43319082e-03 2.81610759e-03 2.19395780e-03
      1.93036324e-03 1.55156490e-03 1.16828247e-03 7.31943466e-04
      7.00651552e-04 1.24865212e-04 1.57540198e-04 -1.42261968e-04</_>
    <_>
      -2.37005157e-03 2.05806736e-03 1.35719869e-03 -1.78399714e-05
      1.46956241e-03 2.82302778e-03 1.56075938e-03 4.32862947e-03
      3.94902704e-03 4.08091163e-03 4.21270356e-03 3.34599428e-03
      3.00064497e-03 2.33069644e-03 1.76741520e-03 1.13866315e-03
      1.06928067e-03 2.96186772e-04 1.60112162e-04 -2.67914904e-04</_>
    <_>
      -2.36953748e-03 2.05573323e-03 1.36873440e-03 3.17631348e-05
      1.53501483e-03 2.93074315e-03 1.66914822e-03 4.53183474e-03
      4.14385693e-03 4.31611482e-03 4.39960323e-03 3.54288612e-03
      3.18328291e-03 2.46524671e-03 1.87624735e-03 1.23076513e-03
      1.13494368e-03 3.18027160e-04 1.44004007e-04 -3.37017002e-04</_>
    <_>
      -2.53362558e-03 1.67899521e-03 9.47390567e-04 -4.79603361e-04
      5.00198395e-04 1.40063651e-03 -1.20139070e-04 1.92243524e-03
      1.40593934e-03 1.29721663e-03 1.76802441e-03 1.32569508e-03
      1.15488784e-03 9.31858842e-04 7.13460555e-04 4.60448151e-04
      4.57544695e-04 8.43781745e-05 2.48783908e-04 3.93089722e-05</_>
    <_>
      -2.52379035e-03 1.76867330e-03 1.03135803e-03 -4.57833579e-04
      6.31908420e-04 1.60860084e-03 9.60590551e-05 2.21646228e-03
      1.73465023e-03 1.60008250e-03 2.08235346e-03 1.54755439e-03
      1.30274706e-03 1.01591717e-03 6.91621914e-04 3.04606190e-04
      1.93912419e-04 -2.89516582e-04 -2.87827919e-04 -5.04559255e-04</_>
    <_>
      -2.35157786e-03 1.90968730e-03 1.23785390e-03 3.18371603e-05
      1.37521443e-03 2.63738888e-03 1.45899958e-03 4.16261097e-03
      3.74638755e-03 3.97763820e-03 3.96968191e-03 3.17620579e-03
      2.91144405e-03 2.19171308e-03 1.71969202e-03 1.21596223e-03
      1.14183268e-03 4.85080353e-04 3.91561480e-04 -6.41394872e-05</_>
    <_>
      -2.18272442e-03 7.21207296e-04 2.61951282e-05 1.22852216e-03
      6.07335824e-04 1.61355559e-03 2.84990791e-04 3.95900244e-03
      2.54962663e-03 4.33370238e-03 2.63744337e-03 2.59222812e-03
      3.03511764e-03 1.71222375e-03 2.29778816e-03 3.19327111e-03
      3.38152703e-03 4.09802701e-03 5.43331588e-03 4.16699611e-03</_>
    <_>
      -2.54094228e-03 1.73753162e-03 1.00110157e-03 -4.95189161e-04
      5.55565057e-04 1.50499924e-03 -2.83085974e-05 2.09370535e-03
      1.64323428e-03 1.61846646e-03 2.17605964e-03 1.88333029e-03
      1.89373456e-03 1.96421868e-03 1.94729795e-03 1.98299135e-03
      2.80679786e-03 2.48656701e-03 3.24864523e-03 2.84290570e-03</_>
    <_>
      -2.60562985e-03 1.61201227e-03 8.60153232e-04 -6.80738594e-04
      1.87037454e-04 9.52843810e-04 -7.08748586e-04 1.08451187e-03
      5.40706562e-04 2.73965998e-04 9.51780006e-04 6.48479676e-04
      5.05971257e-04 5.08084195e-04 3.91012989e-04 2.59896158e-04
      3.24236229e-04 8.74997349e-05 4.44705249e-04 3.45477369e-04</_>
    <_>
      -2.54671369e-03 1.75409112e-03 1.00616901e-03 -5.15004736e-04
      5.28841978e-04 1.46401266e-03 -1.20325829e-04 1.94739527e-03
      1.44181517e-03 1.26284373e-03 1.82335486e-03 1.35374314e-03
      1.14542025e-03 9.79596865e-04 7.35166832e-04 4.48401086e-04
      4.71675186e-04 7.74684595e-05 2.91764794e-04 1.11649977e-04</_>
    <_>
      -2.54181377e-03 1.75010413e-03 1.00720464e-03 -4.97324276e-04
      5.54818194e-04 1.50049222e-03 -6.76941709e-05 2.01861071e-03
      1.51638698e-03 1.34708686e-03 1.88164506e-03 1.40090007e-03
      1.17333769e-03 9.62968566e-04 6.90668938e-04 3.71209928e-04
      3.29767470e-04 -9.10661183e-05 4.59469156e-05 -1.45054888e-04</_>
    <_>
      -2.46743695e-03 1.89148542e-03 1.16797583e-03 -2.87635659e-04
      9.61849757e-04 2.09660153e-03 6.50451868e-04 3.05756368e-03
      2.60851928e-03 2.57474743e-03 2.94549670e-03 2.30263453e-03
      2.03197356e-03 1.63941458e-03 1.24875491e-03 8.05680524e-04
      8.01223097e-04 2.17064749e-04 2.59678171e-04 -5.09831007e-05</_>
    <_>
      -2.47749873e-03 1.85928948e-03 1.13375892e-03 -3.20613850e-04
      8.94108380e-04 1.99559308e-03 5.42378868e-04 2.88668531e-03
      2.43293727e-03 2.39351392e-03 2.78513832e-03 2.17919657e-03
      1.92430511e-03 1.55061390e-03 1.18030061e-03 7.54368550e-04
      7.53659697e-04 1.82307209e-04 2.32073828e-04 -5.42822527e-05</_>
    <_>
      -2.59525911e-03 1.64931896e-03 8.87529401e-04 -6.54141884e-04
      2.57922948e-04 1.07381213e-03 -5.57675899e-04 1.28678675e-03
      7.57571892e-04 5.27864322e-04 1.17420510e-03 8.12759972e-04
      6.47244509e-04 5.72353194e-04 3.92266724e-04 1.58609822e-04
      1.55883317e-04 -1.89756684e-04 -1.69477426e-05 -1.54299894e-04</_>
    <_>
      -2.37744837e-03 1.84442650e-03 1.27258291e-03 -1.71953521e-04
      1.16119883e-03 2.33807112e-03 1.08237984e-03 3.52052483e-03
      3.15323891e-03 3.15518933e-03 3.43402824e-03 2.61902390e-03
      2.34133517e-03 1.81120285e-03 1.38099899e-03 8.83423432e-04
      8.36775987e-04 2.44611176e-04 7.35514332e-05 -2.21245049e-04</_>
    <_>
      -2.39881314e-03 1.99573976e-03 1.28812843e-03 -1.03155922e-04
      1.30252598e-03 2.57527176e-03 1.27415801e-03 3.90851405e-03
      3.51185119e-03 3.60180205e-03 3.79694183e-03 3.00638215e-03
      2.69415556e-03 2.11093598e-03 1.60834088e-03 1.04817306e-03
      1.00477366e-03 2.97481543e-04 2.24144664e-04 -1.68596045e-04</_>
    <_>
      -2.29655998e-03 1.77386333e-03 1.35530066e-03 -8.80386651e-05
      1.30035321e-03 2.48953770e-03 1.39768177e-03 3.81616666e-03
      3.51668126e-03 3.50495894e-03 3.71458824e-03 2.72709993e-03
      2.41484842e-03 1.73657888e-03 1.25707313e-03 6.88315544e-04
      4.92307881e-04 -7.62021518e-05 -5.33517217e-04 -7.75571098e-04</_>
    <_>
      -4.62614640e-04 -2.18197820e-03 4.52612853e-03 2.26052784e-04
      1.41291646e-03 2.87663657e-03 3.72164533e-03 4.58945939e-03
      5.52403694e-03 2.85272161e-03 5.32699982e-03 -9.56191507e-04
      -8.13956431e-04 -1.72178587e-03 -6.67182787e-04 -6.26774156e-04
      7.37120645e-05 2.53569242e-03 -4.45578387e-03 -1.89277076e-03</_>
    <_>
      -2.56354269e-03 1.69373676e-03 9.60370526e-04 -5.67767653e-04
      4.19758086e-04 1.29860512e-03 -3.03634559e-04 1.66794390e-03
      1.16232666e-03 9.55002382e-04 1.56261865e-03 1.16634544e-03
      9.93023976e-04 9.00480838e-04 7.10523454e-04 5.03080664e-04
      6.04062574e-04 2.75384868e-04 5.63068897e-04 3.97038006e-04</_>
    <_>
      -2.47434387e-03 1.84822129e-03 1.14429602e-03 -3.08287126e-04
      9.07368609e-04 2.00619851e-03 5.57745574e-04 2.89783929e-03
      2.44866312e-03 2.38466519e-03 2.77402694e-03 2.16078456e-03
      1.89025444e-03 1.51120604e-03 1.12740789e-03 7.06837978e-04
      6.66479697e-04 1.26852538e-04 1.78796472e-04 -8.38533742e-05</_>
    <_>
      -2.40059989e-03 2.01883120e-03 1.30899542e-03 -9.27605288e-05
      1.33448723e-03 2.64099427e-03 1.30512635e-03 3.99997458e-03
      3.59227275e-03 3.66290822e-03 3.86875123e-03 3.05363606e-03
      2.69914977e-03 2.08308897e-03 1.53680542e-03 9.15837009e-04
      7.86850578e-04 3.18615930e-05 -1.32467074e-04 -5.27581782e-04</_>
    <_>
      -2.48747156e-03 1.84751849e-03 1.12539669e-03 -3.39453080e-04
      8.61368200e-04 1.95014279e-03 4.86042089e-04 2.81119160e-03
      2.35773204e-03 2.29760492e-03 2.70328415e-03 2.09884136e-03
      1.83657394e-03 1.48175238e-03 1.10349723e-03 6.71105750e-04
      6.25075074e-04 5.12938132e-05 6.63253013e-05 -2.29948666e-04</_>
    <_>
      -2.46345974e-03 1.89766358e-03 1.17402105e-03 -2.74572638e-04
      9.87885753e-04 2.13835295e-03 7.05216953e-04 3.13208415e-03
      2.68746400e-03 2.67023314e-03 3.02838581e-03 2.37711449e-03
      2.09778082e-03 1.67725154e-03 1.26218819e-03 7.85861572e-04
      7.54225417e-04 1.25886174e-04 1.09529472e-04 -2.10731057e-04</_>
    <_>
      -2.32334551e-03 2.03213701e-03 1.36277219e-03 1.50366250e-05
      1.55941816e-03 2.85301078e-03 1.79328909e-03 4.46224725e-03
      4.15595435e-03 4.34560142e-03 4.37727571e-03 3.49573465e-03
      3.14078783e-03 2.40311725e-03 1.81390648e-03 1.13678398e-03
      1.02228136e-03 2.10045837e-04 -7.64422584e-05 -5.23806142e-04</_>
    <_>
      -2.33996613e-03 2.10174010e-03 1.41228305e-03 6.83224644e-05
      1.62795174e-03 3.05183395e-03 1.84095104e-03 4.72988747e-03
      4.36618039e-03 4.53782827e-03 4.58958000e-03 3.64431646e-03
      3.24924360e-03 2.45807855e-03 1.81377935e-03 1.09175814e-03
      9.14923614e-04 6.40373910e-05 -2.16279179e-04 -6.76722149e-04</_>
    <_>
      -2.10899534e-03 2.29369523e-03 1.70040235e-03 5.12179337e-04
      2.52623949e-03 4.14392911e-03 3.56766884e-03 6.77789142e-03
      6.64711790e-03 7.13273138e-03 6.66434132e-03 5.36075095e-03
      4.81560221e-03 3.48700513e-03 2.53934087e-03 1.44846749e-03
      1.05162594e-03 -1.18175521e-04 -9.63868515e-04 -1.60094001e-03</_>
    <_>
      -2.59413943e-03 1.64642325e-03 8.95420206e-04 -6.57352968e-04
      2.63212947e-04 1.06812466e-03 -5.59918117e-04 1.28004840e-03
      7.64365192e-04 5.11693012e-04 1.16670062e-03 8.03898205e-04
      6.33570191e-04 5.89125091e-04 4.09581466e-04 1.97248359e-04
      1.86982448e-04 -1.29365711e-04 8.04250012e-05 -6.30922150e-05</_>
    <_>
      -2.49210675e-03 1.82757189e-03 1.10336812e-03 -3.67644243e-04
      8.12987913e-04 1.86613132e-03 4.06471780e-04 2.66151689e-03
      2.21020333e-03 2.12155282e-03 2.53761001e-03 1.94501283e-03
      1.67960790e-03 1.33312342e-03 9.59408469e-04 5.37401240e-04
      4.46875580e-04 -8.49796925e-05 -8.14134255e-05 -3.39988270e-04</_>
    <_>
      -2.61773542e-03 1.61463872e-03 8.50765151e-04 -7.19675736e-04
      1.41976983e-04 9.03625041e-04 -7.83119351e-04 9.76230251e-04
      4.32272325e-04 1.43315061e-04 8.62838642e-04 5.60454384e-04
      4.08296357e-04 4.21263801e-04 2.88125972e-04 1.15523348e-04
      1.44511927e-04 -1.30376429e-04 1.41399913e-04 5.02041075e-05</_>
    <_>
      -2.61878525e-03 1.60615006e-03 8.45268602e-04 -7.27972249e-04
      1.26627856e-04 8.71062046e-04 -8.07962031e-04 9.37630655e-04
      3.98066943e-04 1.03170663e-04 8.20658461e-04 5.09226578e-04
      3.58222955e-04 3.83500679e-04 2.53717008e-04 8.94182594e-05
      9.03297914e-05 -1.71380234e-04 1.02736813e-04 -3.30456533e-06</_>
    <_>
      -2.42462126e-03 1.95888383e-03 1.24303123e-03 -1.75173249e-04
      1.17164967e-03 2.38915812e-03 1.03882479e-03 3.57627752e-03
      3.16280569e-03 3.20227304e-03 3.46108712e-03 2.71480763e-03
      2.41215341e-03 1.89514214e-03 1.42609107e-03 8.96771089e-04
      8.38764478e-04 1.75556168e-04 1.24797109e-04 -2.37056171e-04</_>
    <_>
      -2.40021222e-03 1.99974771e-03 1.30958669e-03 -5.07370569e-05
      1.37785682e-03 2.70117912e-03 1.39301457e-03 4.13499353e-03
      3.72811081e-03 3.84948822e-03 3.99444439e-03 3.19985882e-03
      2.86943535e-03 2.22994015e-03 1.68756966e-03 1.09482463e-03
      9.94629459e-04 2.33471976e-04 8.95969570e-05 -3.50623101e-04</_>
    <_>
      -2.46953149e-03 1.79498794e-03 1.08368113e-03 -2.92744604e-04
      8.56562401e-04 1.92096131e-03 5.07640420e-04 2.82884296e-03
      2.35253386e-03 2.33509298e-03 2.64018564e-03 2.02421052e-03
      1.76819053e-03 1.31041533e-03 9.28842754e-04 4.94142412e-04
      3.27443820e-04 -2.18799047e-04 -2.99679697e-04 -5.95808204e-04</_>
    <_>
      -2.39116512e-03 2.00981880e-03 1.30655780e-03 -7.84679869e-05
      1.35487528e-03 2.66253017e-03 1.35860778e-03 4.03675763e-03
      3.63317807e-03 3.69503559e-03 3.86259612e-03 3.00255930e-03
      2.60110665e-03 1.88749051e-03 1.27912906e-03 5.74276317e-04
      2.63924652e-04 -5.19288820e-04 -8.81218526e-04 -1.25478837e-03</_>
    <_>
      -2.40409840e-03 1.81350776e-03 1.13490107e-03 -1.12974158e-04
      1.09727914e-03 2.23394623e-03 9.77522228e-04 3.47233145e-03
      3.02504585e-03 3.16878245e-03 3.26669123e-03 2.58171698e-03
      2.36853911e-03 1.77337183e-03 1.37996965e-03 9.67946078e-04
      8.82547756e-04 3.12479562e-04 2.79193860e-04 -1.17144082e-04</_>
    <_>
      -2.29342934e-03 5.01488452e-04 -1.68421000e-04 9.22243693e-04
      -3.71229326e-05 6.55447948e-04 -8.03024857e-04 2.43552681e-03
      9.62218503e-04 2.55194376e-03 9.33020725e-04 1.18459587e-03
      1.99183612e-03 8.28920747e-04 1.57239160e-03 2.81519187e-03
      2.93177948e-03 3.65892821e-03 5.34729706e-03 4.07378841e-03</_>
    <_>
      -2.54093506e-03 1.73740438e-03 1.00426353e-03 -4.90228762e-04
      5.63888228e-04 1.51768979e-03 -1.23365317e-05 2.11536745e-03
      1.66200171e-03 1.63110183e-03 2.17835186e-03 1.86238461e-03
      1.85417198e-03 1.89131871e-03 1.84563128e-03 1.84380449e-03
      2.58169277e-03 2.24202219e-03 2.92386487e-03 2.53335945e-03</_>
    <_>
      -2.56975926e-03 1.67686050e-03 9.38688405e-04 -5.70409698e-04
      3.97428201e-04 1.26230984e-03 -3.28762457e-04 1.63279334e-03
      1.11715612e-03 9.23142652e-04 1.50293519e-03 1.10639771e-03
      9.32895928e-04 8.15667445e-04 6.16445963e-04 3.94964474e-04
      4.15959861e-04 7.06276624e-05 3.00978718e-04 1.35273440e-04</_>
    <_>
      -2.52797361e-03 1.78774248e-03 1.04499736e-03 -4.59982868e-04
      6.35521312e-04 1.61977543e-03 7.39740790e-05 2.22593965e-03
      1.73695746e-03 1.59436720e-03 2.10435968e-03 1.58489391e-03
      1.35542674e-03 1.12795713e-03 8.36238207e-04 4.96213965e-04
      4.82131727e-04 2.57245265e-05 1.64448109e-04 -5.86116221e-05</_>
    <_>
      -2.61149532e-03 1.62416429e-03 8.64403613e-04 -6.99545606e-04
      1.69139821e-04 9.32605879e-04 -7.53313943e-04 1.03056384e-03
      4.81906580e-04 1.85096636e-04 8.87247268e-04 5.62267145e-04
      4.01472440e-04 4.08263179e-04 2.78615917e-04 1.20695448e-04
      1.33152353e-04 -1.03147002e-04 2.16419692e-04 1.30585628e-04</_>
    <_>
      -2.52909260e-03 1.76605582e-03 1.02837291e-03 -4.68047918e-04
      6.14509103e-04 1.58619718e-03 5.16920118e-05 2.18064943e-03
      1.69509195e-03 1.56650099e-03 2.07626796e-03 1.57989853e-03
      1.36687409e-03 1.14223233e-03 8.62907269e-04 5.36727835e-04
      5.49171236e-04 9.17895231e-05 2.31146696e-04 7.97491521e-06</_>
    <_>
      -2.56759417e-03 1.69921177e-03 9.43365274e-04 -5.77888801e-04
      4.03685961e-04 1.28268567e-03 -3.01696709e-04 1.65300956e-03
      1.14346528e-03 9.58614983e-04 1.54297415e-03 1.12251786e-03
      9.36510274e-04 7.93470128e-04 5.69400727e-04 2.91020784e-04
      2.86565279e-04 -1.12023728e-04 3.50119080e-05 -1.43139856e-04</_>
    <_>
      -2.42220145e-03 1.76366884e-03 1.17263023e-03 -3.05386173e-04
      9.11612064e-04 1.97390630e-03 6.45764871e-04 2.88914028e-03
      2.49360944e-03 2.42453977e-03 2.80973921e-03 2.09314004e-03
      1.84183614e-03 1.43467169e-03 1.07096764e-03 6.46164524e-04
      5.88280032e-04 8.61065928e-05 -4.78143338e-05 -2.90160126e-04</_>
    <_>
      -2.45868973e-03 1.88681763e-03 1.16374274e-03 -2.73800513e-04
      9.79861827e-04 2.10753386e-03 7.10642140e-04 3.09753884e-03
      2.66349409e-03 2.65253964e-03 2.98371958e-03 2.32026679e-03
      2.04961374e-03 1.62188290e-03 1.21373381e-03 7.49867293e-04
      6.99076569e-04 1.01194368e-04 9.17578582e-05 -2.29040044e-04</_>
    <_>
      -2.32096319e-03 1.73102890e-03 1.29059213e-03 -1.70807441e-04
      1.15003786e-03 2.26633810e-03 1.12826307e-03 3.42333619e-03
      3.10432352e-03 3.04577802e-03 3.32035846e-03 2.38069287e-03
      2.05849204e-03 1.43978838e-03 9.76395328e-04 4.28674801e-04
      1.64874364e-04 -3.41565988e-04 -8.31561745e-04 -1.03532476e-03</_>
    <_>
      -2.20705493e-04 -1.70869962e-03 4.41865530e-03 3.05101508e-04
      1.78287190e-03 3.23301484e-03 4.26399056e-03 5.13998419e-03
      6.20747544e-03 3.92995914e-03 6.39292132e-03 2.42903188e-04
      -2.01503572e-04 -1.27640774e-03 -6.44840416e-04 -9.22147883e-04
      -3.63179948e-04 1.98327750e-03 -4.78098541e-03 -2.52649048e-03</_>
    <_>
      -2.44925497e-03 1.90222589e-03 1.20210019e-03 -2.32988343e-04
      1.05656520e-03 2.22820230e-03 8.18587083e-04 3.28614097e-03
      2.85500661e-03 2.84114317e-03 3.16600897e-03 2.48820940e-03
      2.19985726e-03 1.75201951e-03 1.32407981e-03 8.55224556e-04
      8.24412971e-04 2.26931879e-04 2.05746357e-04 -1.19141449e-04</_>
    <_>
      -2.45799171e-03 1.87894423e-03 1.18354289e-03 -2.53264734e-04
      1.01121922e-03 2.15970632e-03 7.44902121e-04 3.16924625e-03
      2.73283059e-03 2.70578172e-03 3.04340804e-03 2.37662182e-03
      2.08973559e-03 1.65092002e-03 1.22242467e-03 7.53223081e-04
      6.74407231e-04 8.50175275e-05 4.66422644e-05 -2.47582793e-04</_>
    <_>
      -2.52201804e-03 1.79821556e-03 1.05718581e-03 -4.41147771e-04
      6.73178642e-04 1.67610240e-03 1.46765640e-04 2.33024126e-03
      1.84862223e-03 1.72062102e-03 2.20980751e-03 1.66904274e-03
      1.42747886e-03 1.17055676e-03 8.52769124e-04 4.80913557e-04
      4.30954969e-04 -6.25382527e-05 1.66859245e-05 -2.30210833e-04</_>
    <_>
      -2.51472136e-03 1.79833546e-03 1.07049546e-03 -4.16629075e-04
      7.15059345e-04 1.73623976e-03 2.26963559e-04 2.43839622e-03
      1.96619751e-03 1.85218430e-03 2.31825188e-03 1.76193239e-03
      1.51189347e-03 1.22315518e-03 8.81999382e-04 4.88256337e-04
      4.11688117e-04 -1.04309991e-04 -7.83668365e-05 -3.35136254e-04</_>
    <_>
      -2.57028919e-03 1.70404464e-03 9.53997136e-04 -5.78487525e-04
      4.11315763e-04 1.30022271e-03 -3.06429982e-04 1.67665002e-03
      1.16341864e-03 9.64083360e-04 1.56615674e-03 1.14248449e-03
      9.43684194e-04 8.11321661e-04 5.75416314e-04 2.86936935e-04
      2.62701884e-04 -1.49355503e-04 -1.98526541e-05 -2.02887051e-04</_>
    <_>
      5.37778623e-03 -1.82291102e-02 -1.41108148e-02 -9.43616312e-03
      -3.07919784e-03 -5.35541773e-02 2.45024618e-02 -4.22585309e-02
      -3.88778187e-03 1.89786442e-02 -1.18519850e-02 8.55240878e-03
      8.44455883e-03 8.34596436e-03 2.88770609e-02 4.13173400e-02
      5.70396818e-02 3.56783271e-02 3.36617753e-02 4.28309292e-02</_>
    <_>
      -2.41319742e-03 1.86782423e-03 1.20409811e-03 -2.08126527e-04
      1.10898237e-03 2.21203081e-03 1.00686937e-03 3.37335514e-03
      3.00893188e-03 3.07268486e-03 3.27186217e-03 2.57152622e-03
      2.27936171e-03 1.77325867e-03 1.34288974e-03 8.47367803e-04
      7.77368550e-04 1.21466117e-04 -2.13816529e-05 -3.54572840e-04</_>
    <_>
      -2.26424029e-03 2.23961053e-03 1.57094479e-03 2.86914408e-04
      2.04362627e-03 3.66074359e-03 2.56614154e-03 5.77682815e-03
      5.45485690e-03 5.73598268e-03 5.60718589e-03 4.47440986e-03
      3.98527319e-03 2.94069969e-03 2.12729792e-03 1.21544278e-03
      9.11154319e-04 -1.13300281e-04 -6.20037434e-04 -1.16388395e-03</_>
    <_>
      -2.00850749e-03 2.47440161e-03 1.96439517e-03 8.68250208e-04
      3.14960070e-03 5.08413790e-03 4.65951301e-03 8.44143331e-03
      8.36219452e-03 9.03873704e-03 8.25047959e-03 6.66204980e-03
      5.96322585e-03 4.25225357e-03 3.07888072e-03 1.75549020e-03
      1.20396214e-03 -2.55166611e-04 -1.41838624e-03 -2.15999782e-03</_>
    <_>
      -2.57323007e-03 1.69482594e-03 9.36404918e-04 -5.99061488e-04
      3.74179392e-04 1.23585761e-03 -3.78066674e-04 1.55833107e-03
      1.04637397e-03 8.33852915e-04 1.45517197e-03 1.05713471e-03
      8.71369382e-04 7.67757883e-04 5.67666371e-04 3.17252125e-04
      3.41577688e-04 -2.78060324e-05 1.89730490e-04 3.78163531e-05</_>
    <_>
      -2.50533270e-03 1.80454040e-03 1.04814488e-03 -4.10328445e-04
      7.27992039e-04 1.76347920e-03 2.63294554e-04 2.46378453e-03
      2.01727287e-03 1.92146143e-03 2.39289459e-03 1.81131135e-03
      1.58944237e-03 1.26713165e-03 9.55556927e-04 5.62599744e-04
      4.90229111e-04 -1.29555701e-05 7.90434424e-05 -2.08892860e-04</_>
    <_>
      -2.49905791e-03 1.73610414e-03 9.91549925e-04 -4.27455176e-04
      6.24984561e-04 1.61235873e-03 1.27709063e-04 2.20182375e-03
      1.74072559e-03 1.59763312e-03 2.06159428e-03 1.43463584e-03
      1.18498993e-03 7.97078013e-04 4.37716168e-04 -1.98482303e-06
      -3.33157048e-04 -7.65942386e-04 -9.00133222e-04 -1.14177493e-03</_>
    <_>
      -2.39950116e-03 1.99557166e-03 1.29449239e-03 -9.68335371e-05
      1.32147316e-03 2.61684181e-03 1.28992251e-03 3.94637603e-03
      3.52516980e-03 3.53499549e-03 3.70501960e-03 2.81629711e-03
      2.35012360e-03 1.57404179e-03 9.04511660e-04 1.15943374e-04
      -4.18979209e-04 -1.22135004e-03 -1.78581499e-03 -2.12558080e-03</_>
    <_>
      -2.47920444e-03 1.66608358e-03 9.16016172e-04 -4.25357430e-04
      5.46314404e-04 1.49304571e-03 7.49892351e-05 2.01210589e-03
      1.59156998e-03 1.50960637e-03 1.97481830e-03 1.36629958e-03
      1.25744625e-03 9.26306238e-04 6.85323030e-04 3.97211290e-04
      2.58162734e-04 -2.66742427e-05 8.32562800e-05 -1.99801056e-04</_>
    <_>
      -2.16443744e-03 5.73996687e-04 -6.10422634e-04 6.77931384e-05
      -9.68507491e-04 5.10186655e-04 -1.12330553e-03 -5.15815453e-04
      -6.41133287e-04 -1.59852119e-04 8.07605800e-04 -8.72331322e-04
      8.24823743e-04 -5.40133333e-05 8.32908903e-04 1.74570887e-03
      1.43340533e-03 3.92035581e-03 5.93182305e-03 4.59372019e-03</_>
    <_>
      -2.54104263e-03 1.72594318e-03 9.62148479e-04 -5.34725026e-04
      4.87876998e-04 1.39149069e-03 -1.70751649e-04 1.82658399e-03
      1.34884857e-03 1.17685739e-03 1.75249658e-03 1.28617603e-03
      1.10615499e-03 9.35632968e-04 7.18705240e-04 4.44925390e-04
      4.52739070e-04 7.05771381e-05 3.03277629e-04 1.09174463e-04</_>
    <_>
      -2.50320300e-03 1.83267891e-03 1.09667098e-03 -3.87647509e-04
      7.72447675e-04 1.82069791e-03 3.15873593e-04 2.57514021e-03
      2.10179994e-03 2.00464809e-03 2.45575234e-03 1.88345276e-03
      1.63429615e-03 1.33480446e-03 9.97948926e-04 6.09030190e-04
      5.90341340e-04 7.62471464e-05 1.68211584e-04 -8.85071931e-05</_>
    <_>
      -2.28854269e-03 2.21038749e-03 1.52142369e-03 2.07023462e-04
      1.90240622e-03 3.46061517e-03 2.26657838e-03 5.37343696e-03
      5.01702074e-03 5.18567814e-03 5.15140546e-03 4.04092018e-03
      3.51259904e-03 2.49474333e-03 1.70025043e-03 7.86019024e-04
      3.45376786e-04 -5.92837692e-04 -1.10181875e-03 -1.54362037e-03</_>
    <_>
      -2.44233664e-03 1.92483549e-03 1.20328716e-03 -2.28231278e-04
      1.07548793e-03 2.25210469e-03 8.50900426e-04 3.32642044e-03
      2.89547397e-03 2.87992693e-03 3.19167948e-03 2.46893847e-03
      2.15020776e-03 1.65048486e-03 1.18877296e-03 6.52683317e-04
      5.02643816e-04 -1.39711367e-04 -2.36298074e-04 -5.58958622e-04</_>
    <_>
      -2.49889749e-03 1.82405370e-03 1.09585677e-03 -3.73055344e-04
      7.87814613e-04 1.84148294e-03 3.71807721e-04 2.62178155e-03
      2.15398613e-03 2.06683483e-03 2.47716089e-03 1.87794026e-03
      1.60581572e-03 1.24662428e-03 8.65116948e-04 4.28869505e-04
      3.01500550e-04 -2.37930682e-04 -2.84064910e-04 -5.49618446e-04</_>
    <_>
      -2.57057347e-03 1.68419001e-03 9.36838042e-04 -5.90571726e-04
      3.77000571e-04 1.23075931e-03 -3.50706221e-04 1.56975188e-03
      1.06052845e-03 8.39300861e-04 1.42248755e-03 9.80017474e-04
      7.68794038e-04 6.22021907e-04 3.77075252e-04 8.60262080e-05
      -3.52311763e-05 -4.04893770e-04 -3.18700913e-04 -4.86197998e-04</_>
    <_>
      -1.28771109e-03 -5.17232204e-03 3.78074986e-03 -8.83103057e-04
      2.17941683e-03 1.75518217e-05 1.24774221e-03 4.96606901e-03
      2.82948790e-03 8.65781971e-04 -1.10447733e-03 -2.45679729e-03
      -1.65562902e-03 -2.27562292e-03 1.20388460e-04 2.93698162e-04
      2.81039369e-03 4.21399483e-03 -3.31833749e-03 -4.85523546e-04</_>
    <_>
      -2.39493186e-03 2.00005947e-03 1.28615194e-03 -1.13245391e-04
      1.30909879e-03 2.57680262e-03 1.24168501e-03 3.89711233e-03
      3.50436335e-03 3.55995633e-03 3.78905004e-03 2.99490360e-03
      2.66584707e-03 2.07735715e-03 1.58649602e-03 1.01049826e-03
      9.60424601e-04 2.55258929e-04 1.84072822e-04 -2.07059536e-04</_>
    <_>
      -2.26438628e-03 2.22900813e-03 1.54657324e-03 2.53199221e-04
      2.00800947e-03 3.58692394e-03 2.45936471e-03 5.64073632e-03
      5.32266637e-03 5.56375924e-03 5.48560079e-03 4.36123600e-03
      3.86889139e-03 2.83962977e-03 2.05747550e-03 1.14100077e-03
      8.20800138e-04 -1.88917213e-04 -6.45458058e-04 -1.15171948e-03</_>
    <_>
      -2.06597149e-03 2.62792083e-03 2.00528279e-03 8.63711466e-04
      3.15710483e-03 5.29864384e-03 4.47371509e-03 8.57227482e-03
      8.35055485e-03 8.88220593e-03 8.29345640e-03 6.63133198e-03
      5.84043609e-03 4.10130434e-03 2.80345557e-03 1.33359130e-03
      5.74681209e-04 -9.32231953e-04 -2.11073854e-03 -2.86498014e-03</_>
    <_>
      5.26336767e-03 -1.91094410e-02 -1.54841822e-02 -1.19394194e-02
      -4.04270738e-03 -5.81549704e-02 1.95326377e-02 -4.84158173e-02
      -7.29819667e-03 1.55024538e-02 -1.51246022e-02 2.88312882e-03
      8.06848286e-04 1.00996010e-02 2.72280201e-02 4.21242155e-02
      6.13253489e-02 4.09355275e-02 4.45357636e-02 5.24593219e-02</_>
    <_>
      -2.40787352e-03 1.87851395e-03 1.21517375e-03 -1.94542401e-04
      1.13810413e-03 2.25430354e-03 1.05418579e-03 3.44292587e-03
      3.07986164e-03 3.14265722e-03 3.32765142e-03 2.60333717e-03
      2.29191966e-03 1.75490230e-03 1.29671791e-03 7.69812730e-04
      6.44470914e-04 -2.70567834e-05 -2.21589173e-04 -5.54459926e-04</_>
    <_>
      -2.47466285e-03 1.85687596e-03 1.13393483e-03 -3.13376600e-04
      9.00477986e-04 1.99714256e-03 5.74574457e-04 2.90572806e-03
      2.46105273e-03 2.43560178e-03 2.80285394e-03 2.18405761e-03
      1.93945761e-03 1.56219152e-03 1.19022769e-03 7.68636237e-04
      7.65909906e-04 1.98902271e-04 2.37614149e-04 -6.63626706e-05</_>
    <_>
      -2.34514615e-03 1.86371012e-03 1.26456795e-03 -9.65659419e-05
      1.31834811e-03 2.41454109e-03 1.46820431e-03 3.83974612e-03
      3.56845371e-03 3.75600858e-03 3.76066752e-03 2.99141230e-03
      2.69039581e-03 2.06313585e-03 1.59562321e-03 1.06601126e-03
      1.00213080e-03 2.81919725e-04 1.43948710e-05 -3.50672286e-04</_>
    <_>
      -2.25836271e-03 2.25165836e-03 1.57272897e-03 2.82136549e-04
      2.06159847e-03 3.67480773e-03 2.56290031e-03 5.77624561e-03
      5.45808114e-03 5.68173500e-03 5.55824675e-03 4.37491946e-03
      3.79463239e-03 2.66796281e-03 1.78679544e-03 7.70697545e-04
      2.30885285e-04 -8.29705095e-04 -1.51388487e-03 -2.01438274e-03</_>
    <_>
      -2.37368909e-03 2.06848769e-03 1.36599503e-03 -1.71996944e-05
      1.47850532e-03 2.85316980e-03 1.53885433e-03 4.34244284e-03
      3.93575290e-03 4.00498742e-03 4.14817221e-03 3.23763117e-03
      2.79994588e-03 2.03909865e-03 1.39248325e-03 6.46902539e-04
      3.25398752e-04 -4.87424666e-04 -8.45377392e-04 -1.22646452e-03</_>
    <_>
      -2.35860050e-03 2.08464009e-03 1.38127734e-03 1.40687625e-05
      1.54188043e-03 2.93686916e-03 1.66175468e-03 4.49863449e-03
      4.11530444e-03 4.22968715e-03 4.34495090e-03 3.43387341e-03
      3.01253446e-03 2.24171835e-03 1.60147483e-03 8.64735339e-04
      6.27695001e-04 -2.15358450e-04 -5.27691387e-04 -9.35822551e-04</_>
    <_>
      -2.43737712e-03 1.93587469e-03 1.21487235e-03 -2.14391650e-04
      1.10487058e-03 2.29355716e-03 9.03620035e-04 3.40106175e-03
      2.97741964e-03 2.98816711e-03 3.29344091e-03 2.58532260e-03
      2.28875643e-03 1.81080599e-03 1.37188728e-03 8.69327923e-04
      8.23731942e-04 1.80934789e-04 1.67789112e-04 -1.69083360e-04</_>
    <_>
      -2.29512481e-03 2.19471613e-03 1.52089924e-03 2.07827587e-04
      1.89389929e-03 3.44344764e-03 2.30677659e-03 5.41099394e-03
      5.07369498e-03 5.33253793e-03 5.27249137e-03 4.23288206e-03
      3.80718149e-03 2.90112826e-03 2.17842869e-03 1.38167373e-03
      1.23787683e-03 2.88581825e-04 -3.72250797e-05 -5.63434325e-04</_>
    <_>
      -2.40965211e-03 1.97706046e-03 1.24367466e-03 -1.38093397e-04
      1.24654209e-03 2.51515652e-03 1.16724987e-03 3.76694743e-03
      3.38111375e-03 3.44142620e-03 3.69377248e-03 2.90632457e-03
      2.59327376e-03 1.99835887e-03 1.51447603e-03 9.38218844e-04
      8.22475820e-04 1.15552801e-04 3.65057494e-05 -3.73803894e-04</_>
    <_>
      -2.57046637e-03 1.60512049e-03 8.39477463e-04 -6.32004638e-04
      2.31611179e-04 1.03728415e-03 -5.45235700e-04 1.22785522e-03
      7.33755354e-04 5.17925946e-04 1.16258510e-03 7.55476882e-04
      6.46050321e-04 5.48633863e-04 4.03574697e-04 2.13259395e-04
      1.71867548e-04 -8.48474447e-05 1.35034090e-04 -5.13031846e-05</_>
    <_>
      -2.47837231e-03 1.66652736e-03 9.12433083e-04 -4.26032173e-04
      5.44674578e-04 1.48994836e-03 7.23104458e-05 2.00897548e-03
      1.58366770e-03 1.47441193e-03 1.94634416e-03 1.32807088e-03
      1.18950545e-03 8.18550354e-04 5.61400666e-04 2.41412112e-04
      1.05125946e-05 -2.87046016e-04 -2.55460560e-04 -5.32269478e-04</_>
    <_>
      -2.14073318e-03 6.18419261e-04 -6.21079467e-04 1.32976958e-04
      -9.02035041e-04 6.51997805e-04 -8.86647555e-04 -1.39036885e-04
      -3.41952546e-04 -6.87145803e-05 9.92646092e-04 -5.44703216e-04
      9.82633559e-04 -2.50357727e-04 6.56282878e-04 1.43955636e-03
      8.53943464e-04 3.07360385e-03 4.51979134e-03 3.22254188e-03</_>
    <_>
      -2.69445917e-03 1.45606091e-03 6.57995464e-04 -9.67993750e-04
      -3.25465837e-04 2.14644926e-04 -1.58405281e-03 -1.74985442e-04
      -7.17551855e-04 -1.05291780e-03 -1.02125108e-04 -1.03922604e-04
      -1.78455957e-06 4.66808036e-04 6.97498326e-04 9.62493476e-04
      1.65559386e-03 1.66386017e-03 2.59684771e-03 2.43370025e-03</_>
    <_>
      -2.51803780e-03 1.76625443e-03 1.00649614e-03 -4.71646228e-04
      6.09207200e-04 1.56775315e-03 4.29678475e-05 2.13332893e-03
      1.67152821e-03 1.53801800e-03 2.06364901e-03 1.55100331e-03
      1.35008746e-03 1.11983507e-03 8.63877358e-04 5.50582190e-04
      5.54890255e-04 1.25378254e-04 3.24982451e-04 9.47091030e-05</_>
    <_>
      -2.46609771e-03 1.89991388e-03 1.17338786e-03 -2.79181520e-04
      9.77541786e-04 2.12350255e-03 6.79049059e-04 3.09958309e-03
      2.64943158e-03 2.62368470e-03 2.98817968e-03 2.34071934e-03
      2.06535589e-03 1.65826234e-03 1.25669129e-03 7.96365610e-04
      7.83361611e-04 1.80639210e-04 2.07589823e-04 -9.83517966e-05</_>
    <_>
      -2.32271268e-03 2.14756303e-03 1.44911814e-03 1.09884189e-04
      1.71767548e-03 3.19388299e-03 1.94836315e-03 4.91520064e-03
      4.54021106e-03 4.66804300e-03 4.71549481e-03 3.69846914e-03
      3.21684661e-03 2.31378037e-03 1.59650308e-03 7.68762897e-04
      4.06582258e-04 -4.65439865e-04 -8.74103745e-04 -1.28393969e-03</_>
    <_>
      -2.49160267e-03 1.84827333e-03 1.11656007e-03 -3.56432254e-04
      8.32071819e-04 1.91265100e-03 4.15906252e-04 2.72391527e-03
      2.25209212e-03 2.16299389e-03 2.59067118e-03 1.98798394e-03
      1.71297812e-03 1.34918862e-03 9.78341093e-04 5.41040092e-04
      4.70605621e-04 -7.63734570e-05 -7.03364494e-05 -3.29803996e-04</_>
    <_>
      -2.45274836e-03 1.90522941e-03 1.18066336e-03 -2.55325489e-04
      1.02140894e-03 2.17932649e-03 7.64303259e-04 3.20237922e-03
      2.76702270e-03 2.76147854e-03 3.10202152e-03 2.43321713e-03
      2.15589372e-03 1.71421701e-03 1.30157941e-03 8.22943577e-04
      7.94090331e-04 1.68586965e-04 1.65416859e-04 -1.55222195e-04</_>
    <_>
      -2.40945397e-03 1.98656647e-03 1.28114258e-03 -1.17492833e-04
      1.27112889e-03 2.54149362e-03 1.22497231e-03 3.84677062e-03
      3.44117242e-03 3.52032110e-03 3.72566213e-03 2.94564175e-03
      2.62881164e-03 2.05421867e-03 1.54465158e-03 9.79919801e-04
      9.08504706e-04 1.96482870e-04 8.61893641e-05 -3.08371149e-04</_>
    <_>
      -2.58823927e-03 1.65498850e-03 8.94443132e-04 -6.43060484e-04
      3.16127815e-04 1.14544970e-03 -5.02907264e-04 1.40516204e-03
      8.99262028e-04 6.69793284e-04 1.32444117e-03 9.46316228e-04
      7.69738690e-04 6.82514976e-04 5.00016555e-04 2.24669406e-04
      2.27255106e-04 -1.71865744e-04 1.73633453e-05 -1.35991373e-04</_>
    <_>
      -1.41591742e-03 -5.18915523e-03 3.87284043e-03 -8.55956401e-04
      2.00440455e-03 4.01898171e-04 1.38334977e-03 5.01844008e-03
      2.97159236e-03 1.38661952e-03 -8.96828482e-04 -2.75990274e-03
      -1.82503741e-03 -2.03519594e-03 -8.71212105e-05 4.08767926e-04
      2.91451276e-03 4.48529143e-03 -3.32859997e-03 -7.06978026e-04</_>
    <_>
      -2.35111546e-03 2.07888591e-03 1.37583714e-03 1.17449381e-05
      1.54779432e-03 2.92391167e-03 1.66662654e-03 4.51144716e-03
      4.15765587e-03 4.32076259e-03 4.45392868e-03 3.60102765e-03
      3.28523805e-03 2.64017237e-03 2.12156493e-03 1.53877400e-03
      1.65891706e-03 8.83642351e-04 8.91513075e-04 4.06658830e-04</_>
    <_>
      -2.30524060e-03 2.15344038e-03 1.45990751e-03 1.35145063e-04
      1.78648310e-03 3.26354243e-03 2.07354268e-03 5.08556562e-03
      4.74833418e-03 4.93871002e-03 4.95749526e-03 3.94100416e-03
      3.50377662e-03 2.62326584e-03 1.93221075e-03 1.12777366e-03
      9.07164882e-04 -1.10495603e-05 -3.25278670e-04 -7.97433313e-04</_>
    <_>
      -2.05901591e-03 2.64015212e-03 2.01896671e-03 8.86289810e-04
      3.19705019e-03 5.36035374e-03 4.55282954e-03 8.68587475e-03
      8.47320259e-03 9.04817414e-03 8.44755303e-03 6.80258963e-03
      6.04668399e-03 4.32585878e-03 3.05364677e-03 1.61936227e-03
      9.95897222e-04 -5.22506656e-04 -1.60951097e-03 -2.38706381e-03</_>
    <_>
      -2.44724844e-03 1.91966200e-03 1.19494472e-03 -2.37702901e-04
      1.06683571e-03 2.24775262e-03 8.35777086e-04 3.31944227e-03
      2.88824551e-03 2.88830791e-03 3.21276672e-03 2.51883804e-03
      2.21322756e-03 1.72576983e-03 1.27329573e-03 7.36231916e-04
      6.45895838e-04 -2.95545906e-05 -1.19623379e-04 -4.51372878e-04</_>
    <_>
      -2.37750052e-03 2.05474137e-03 1.35205314e-03 -2.88172887e-05
      1.45526032e-03 2.81787990e-03 1.51973707e-03 4.30875691e-03
      3.91538208e-03 4.03197762e-03 4.18832945e-03 3.33426963e-03
      2.96874414e-03 2.28909822e-03 1.70918135e-03 1.04989146e-03
      9.39953723e-04 1.30778004e-04 -6.79537188e-05 -4.89774742e-04</_>
    <_>
      -2.55329022e-03 1.65436033e-03 8.25821015e-04 -6.83564402e-04
      2.68788805e-04 9.45429900e-04 -5.15743159e-04 1.10934931e-03
      7.05965736e-04 5.00948401e-04 1.14942808e-03 8.34653911e-04
      6.48129382e-04 6.29665970e-04 4.75002336e-04 2.38230568e-04
      2.69801414e-04 -8.61154404e-05 2.33733270e-04 8.33612867e-05</_>
    <_>
      6.83386531e-03 -1.73026286e-02 -1.67361163e-02 -1.46023575e-02
      -4.70339786e-03 -6.00251853e-02 1.84916183e-02 -5.21102995e-02
      -5.83870290e-03 2.16193087e-02 -1.00135915e-02 6.70323381e-03
      1.74934510e-03 1.41491415e-02 2.18282379e-02 3.50605249e-02
      4.82883081e-02 3.11398283e-02 3.87607887e-02 4.42327484e-02</_>
    <_>
      -2.45611975e-03 1.89074245e-03 1.17277249e-03 -2.61210487e-04
      1.00004370e-03 2.13959301e-03 7.47195096e-04 3.15362844e-03
      2.72053061e-03 2.71886564e-03 3.04210279e-03 2.37477687e-03
      2.10802979e-03 1.67533779e-03 1.26522803e-03 8.02632654e-04
      7.67562713e-04 1.65325939e-04 1.59777584e-04 -1.67327467e-04</_>
    <_>
      -2.33375584e-03 1.88465940e-03 1.28351373e-03 -7.39221869e-05
      1.36823894e-03 2.48017535e-03 1.54908537e-03 3.94979818e-03
      3.68767767e-03 3.89584457e-03 3.87880974e-03 3.08557064e-03
      2.77261087e-03 2.11051153e-03 1.61186198e-03 1.05220033e-03
      9.54463147e-04 2.23053910e-04 -6.36986224e-05 -4.35230671e-04</_>
    <_>
      -2.23632576e-03 2.29133922e-03 1.61587913e-03 3.42607585e-04
      2.17629224e-03 3.84522928e-03 2.76527950e-03 6.06736960e-03
      5.76446950e-03 6.03669370e-03 5.86711522e-03 4.65424545e-03
      4.07071551e-03 2.90298951e-03 1.99710997e-03 9.65280284e-04
      4.82589705e-04 -6.13539363e-04 -1.27483369e-03 -1.79858552e-03</_>
    <_>
      -2.56340532e-03 1.72352139e-03 9.72175563e-04 -5.57589519e-04
      4.50708321e-04 1.36144832e-03 -2.56223575e-04 1.75781129e-03
      1.23433711e-03 1.01045310e-03 1.59744988e-03 1.13180466e-03
      8.82773194e-04 6.81697507e-04 3.99703451e-04 4.84582270e-05
      -1.00006582e-04 -5.19512687e-04 -4.86079836e-04 -6.35639357e-04</_>
    <_>
      -2.51922291e-03 1.79206801e-03 1.04664231e-03 -4.46434075e-04
      6.66814274e-04 1.66156609e-03 1.37665833e-04 2.29988899e-03
      1.82559900e-03 1.70539995e-03 2.19849334e-03 1.67781999e-03
      1.44209189e-03 1.18506467e-03 8.79152154e-04 5.17427281e-04
      5.04602503e-04 1.19527103e-05 1.18475757e-04 -1.10278721e-04</_>
    <_>
      -2.62067374e-03 1.61491882e-03 8.48341617e-04 -7.32379325e-04
      1.16569863e-04 8.60920991e-04 -8.52353172e-04 8.92289681e-04
      3.35444231e-04 1.87093392e-05 7.58343609e-04 4.52960259e-04
      3.00498214e-04 3.38573591e-04 2.31332844e-04 8.99973093e-05
      1.26106315e-04 -9.29724192e-05 2.56056315e-04 1.95381523e-04</_>
    <_>
      -2.46611633e-03 1.88383670e-03 1.15445117e-03 -2.97360471e-04
      9.46505985e-04 2.06340989e-03 6.27258560e-04 3.00219539e-03
      2.56155105e-03 2.53012567e-03 2.90291803e-03 2.26704450e-03
      2.00387393e-03 1.61788566e-03 1.23802805e-03 8.05841060e-04
      8.03689938e-04 2.29971716e-04 3.03458422e-04 4.04921593e-06</_>
    <_>
      -2.34858878e-03 2.09757546e-03 1.40999886e-03 5.53981081e-05
      1.60249544e-03 3.01819947e-03 1.79903465e-03 4.67797136e-03
      4.31077695e-03 4.49557137e-03 4.56346618e-03 3.65828397e-03
      3.30481422e-03 2.57842103e-03 1.97941111e-03 1.32073462e-03
      1.28040521e-03 4.55849920e-04 2.99149891e-04 -1.68103026e-04</_>
    <_>
      -2.43829656e-03 1.92355178e-03 1.18154683e-03 -2.23632320e-04
      1.08724786e-03 2.28237384e-03 8.91720818e-04 3.37336282e-03
      2.97169643e-03 2.99388985e-03 3.31657077e-03 2.61489465e-03
      2.33421591e-03 1.84986426e-03 1.43182173e-03 9.39424266e-04
      9.04872955e-04 2.56206258e-04 2.80036940e-04 -9.86015657e-05</_>
    <_>
      -2.50436482e-03 1.72440999e-03 9.74101480e-04 -4.46320773e-04
      5.83257060e-04 1.54285203e-03 7.23254925e-05 2.12316029e-03
      1.66654564e-03 1.55239878e-03 2.05002259e-03 1.51215401e-03
      1.34026643e-03 1.06633431e-03 8.13817140e-04 5.09225181e-04
      4.62877913e-04 7.19742966e-05 1.93962012e-04 -7.04580452e-05</_>
    <_>
      -2.43780459e-03 1.73829251e-03 9.91235371e-04 -3.14795965e-04
      7.52764754e-04 1.78311020e-03 4.46617662e-04 2.55959900e-03
      2.15545599e-03 2.11870880e-03 2.51110923e-03 1.85494055e-03
      1.69505342e-03 1.25335809e-03 9.67710803e-04 6.23350265e-04
      5.05625154e-04 1.27801904e-04 1.80444331e-04 -1.49157830e-04</_>
    <_>
      -2.08149711e-03 7.17111863e-04 -5.61517663e-04 2.65175593e-04
      -7.20181153e-04 8.17845284e-04 -4.60166280e-04 7.09411514e-04
      3.93579918e-04 5.54066966e-04 1.65416556e-03 4.40447824e-04
      1.57760712e-03 1.96538473e-04 1.19355996e-03 1.92349858e-03
      1.64870033e-03 3.55059328e-03 4.63983091e-03 3.47304484e-03</_>
    <_>
      -2.60910322e-03 1.61058630e-03 8.33474332e-04 -7.26399594e-04
      1.34172675e-04 8.84388806e-04 -7.77885783e-04 9.88462707e-04
      4.99333837e-04 3.11297597e-04 1.06884656e-03 8.97677382e-04
      9.37826291e-04 1.18876994e-03 1.28287275e-03 1.41302682e-03
      2.13835784e-03 1.97945093e-03 2.81992508e-03 2.54786829e-03</_>
    <_>
      -2.48352438e-03 1.82788027e-03 1.07579737e-03 -3.77578661e-04
      7.90658116e-04 1.82929449e-03 3.61231796e-04 2.59214779e-03
      2.15162570e-03 2.07038224e-03 2.51800707e-03 1.93693559e-03
      1.70096615e-03 1.38609996e-03 1.06828124e-03 6.99143740e-04
      7.00689852e-04 2.03489442e-04 3.58534919e-04 8.67611379e-05</_>
    <_>
      -2.47903867e-03 1.87631755e-03 1.14656915e-03 -3.15777259e-04
      9.08513088e-04 2.02334300e-03 5.59828535e-04 2.92763254e-03
      2.47044466e-03 2.42482126e-03 2.81785661e-03 2.19770242e-03
      1.93272135e-03 1.56049232e-03 1.17944682e-03 7.40403833e-04
      7.27768929e-04 1.46550126e-04 1.86832622e-04 -1.07144588e-04</_>
    <_>
      -2.41847755e-03 1.97286578e-03 1.24941510e-03 -1.63617020e-04
      1.19827176e-03 2.44035479e-03 1.04371936e-03 3.61335604e-03
      3.18040908e-03 3.16532399e-03 3.43717076e-03 2.65215873e-03
      2.26927269e-03 1.65603252e-03 1.12571777e-03 5.04190684e-04
      2.50815996e-04 -4.25682112e-04 -6.23873726e-04 -9.20352410e-04</_>
    <_>
      -2.47131661e-03 1.88493857e-03 1.15850382e-03 -2.97604594e-04
      9.43796476e-04 2.07660161e-03 6.15387224e-04 3.01069533e-03
      2.55350349e-03 2.50592688e-03 2.88586598e-03 2.24355422e-03
      1.95865333e-03 1.54511211e-03 1.14335399e-03 6.75141928e-04
      6.21347281e-04 2.81433458e-05 1.42317149e-05 -2.77114857e-04</_>
    <_>
      -2.51607364e-03 1.78990792e-03 1.04928541e-03 -4.34987887e-04
      6.80127181e-04 1.68583519e-03 1.67727121e-04 2.34507909e-03
      1.86940283e-03 1.76493824e-03 2.25139107e-03 1.72731734e-03
      1.50550413e-03 1.23840710e-03 9.36776225e-04 5.77644969e-04
      5.85084723e-04 8.54801619e-05 1.89421466e-04 -4.95640561e-05</_>
    <_>
      -2.41272291e-03 1.98096223e-03 1.27466978e-03 -1.26320185e-04
      1.25312817e-03 2.51480378e-03 1.19287672e-03 3.80100054e-03
      3.39291501e-03 3.46829207e-03 3.68313398e-03 2.91322987e-03
      2.60429108e-03 2.03950726e-03 1.54233992e-03 9.87935578e-04
      9.30796145e-04 2.29667698e-04 1.37917465e-04 -2.49900622e-04</_>
    <_>
      -2.55015912e-03 1.72224268e-03 9.70538473e-04 -5.39309811e-04
      5.20118745e-04 1.44294649e-03 -1.44716294e-04 1.91626791e-03
      1.44009618e-03 1.27660984e-03 1.84127875e-03 1.37902307e-03
      1.16614427e-03 9.91155393e-04 7.36688147e-04 4.05026076e-04
      4.03646787e-04 -7.63265416e-05 6.40517101e-05 -1.47730927e-04</_>
    <_>
      -2.53800955e-03 1.54269289e-03 9.56830976e-04 -6.05640176e-04
      3.89599649e-04 1.16305659e-03 -3.31815303e-04 1.55253813e-03
      1.05417194e-03 8.46746145e-04 1.37737102e-03 9.29699861e-04
      7.86105462e-04 6.81916252e-04 5.18724206e-04 2.88846466e-04
      3.11514887e-04 -2.00177310e-05 2.84351408e-05 -1.02677615e-04</_>
    <_>
      -2.54873536e-03 1.72406831e-03 9.82363243e-04 -5.28559205e-04
      4.92776977e-04 1.39501016e-03 -1.43829704e-04 1.86475518e-03
      1.37449650e-03 1.20409846e-03 1.73972105e-03 1.26457401e-03
      1.06439460e-03 8.93045217e-04 6.40243525e-04 3.49866896e-04
      3.07042734e-04 -8.92683747e-05 5.02608018e-05 -1.58143870e-04</_>
    <_>
      -1.39555521e-03 -4.91574267e-03 4.22118232e-03 -4.74117318e-04
      2.39555025e-03 1.80290546e-03 2.44431384e-03 6.17213733e-03
      4.31945920e-03 3.26310564e-03 5.56983810e-04 -2.09666602e-03
      -9.60863836e-04 -1.35823048e-03 2.75073166e-04 8.25314026e-04
      2.99428310e-03 4.63430118e-03 -3.33515089e-03 -9.44400614e-04</_>
    <_>
      -2.33797869e-03 2.10184231e-03 1.40190171e-03 4.69541992e-05
      1.61964179e-03 3.03161563e-03 1.79178244e-03 4.69172979e-03
      4.34620492e-03 4.52021509e-03 4.61800583e-03 3.72352847e-03
      3.37258331e-03 2.68082507e-03 2.11254228e-03 1.48436567e-03
      1.54152187e-03 7.25724385e-04 6.51022012e-04 1.44500824e-04</_>
    <_>
      -2.35022581e-03 2.07007956e-03 1.36396871e-03 3.56318196e-06
      1.53997017e-03 2.90848990e-03 1.64436921e-03 4.46500070e-03
      4.10195161e-03 4.22460260e-03 4.34812391e-03 3.44264624e-03
      3.04726930e-03 2.31859577e-03 1.71101419e-03 1.01482042e-03
      8.53896723e-04 2.80237291e-05 -1.77885755e-04 -5.99702005e-04</_>
    <_>
      -2.23330967e-03 2.32318416e-03 1.65703217e-03 3.88855231e-04
      2.25055870e-03 3.98364151e-03 2.90132081e-03 6.30602706e-03
      5.98933036e-03 6.30158512e-03 6.11045910e-03 4.88203904e-03
      4.31441050e-03 3.12956632e-03 2.20869365e-03 1.16053817e-03
      7.41385564e-04 -4.04068851e-04 -1.08104653e-03 -1.65342027e-03</_>
    <_>
      -2.47654691e-03 1.86576485e-03 1.13318395e-03 -3.22643900e-04
      9.06720816e-04 2.01521767e-03 5.57257328e-04 2.91672954e-03
      2.46951496e-03 2.42730975e-03 2.82045663e-03 2.19934294e-03
      1.92598894e-03 1.53668202e-03 1.14411069e-03 6.79277466e-04
      6.33939868e-04 2.15752516e-05 1.10068358e-05 -2.89190153e-04</_>
    <_>
      -2.36790348e-03 2.07212614e-03 1.37195410e-03 -1.68883707e-06
      1.50668470e-03 2.89213425e-03 1.61155523e-03 4.43996536e-03
      4.05456964e-03 4.19266708e-03 4.32710862e-03 3.45794391e-03
      3.09390295e-03 2.40168418e-03 1.81408075e-03 1.15186011e-03
      1.06962770e-03 2.44496216e-04 5.95623860e-05 -3.80263897e-04</_>
    <_>
      -2.60495115e-03 1.62967562e-03 8.67852708e-04 -6.95194642e-04
      1.89167040e-04 9.62641323e-04 -7.09078799e-04 1.08598405e-03
      5.48340788e-04 2.74747959e-04 9.76451440e-04 6.51574344e-04
      5.00624883e-04 5.03156916e-04 3.71080008e-04 1.99785456e-04
      2.51381658e-04 -2.65266281e-05 2.76192557e-04 1.74926070e-04</_>
    <_>
      -2.60133599e-03 1.63501897e-03 8.80664040e-04 -6.67105895e-04
      2.25828218e-04 1.02335669e-03 -6.16144389e-04 1.20405853e-03
      6.69757312e-04 4.25181468e-04 1.08624494e-03 7.36877671e-04
      5.86342881e-04 5.45157527e-04 3.86152766e-04 1.85062527e-04
      2.03254865e-04 -1.05359999e-04 1.14678987e-04 -1.86510151e-05</_>
    <_>
      -2.50727450e-03 1.73706817e-03 9.22345847e-04 -5.50038298e-04
      5.24961564e-04 1.32749230e-03 -5.53648570e-05 1.77363749e-03
      1.40161486e-03 1.28044607e-03 1.81888277e-03 1.40729034e-03
      1.17436843e-03 1.02677708e-03 7.75828958e-04 4.41056967e-04
      4.42030607e-04 -1.80311035e-05 2.16311368e-04 4.32360684e-06</_>
    <_>
      8.77615251e-03 -1.63348820e-02 -1.88864041e-02 -1.66576765e-02
      -5.71195129e-03 -6.04345053e-02 2.07601190e-02 -5.77066988e-02
      -4.66532120e-03 2.91542225e-02 -1.56610087e-03 2.15161536e-02
      1.36728687e-02 2.06504110e-02 1.55983735e-02 2.33600996e-02
      2.47430205e-02 5.37948962e-03 1.80236232e-02 2.70744041e-02</_>
    <_>
      -2.53140274e-03 1.75465469e-03 1.01697061e-03 -4.79615759e-04
      5.83443209e-04 1.53030187e-03 4.37389826e-06 2.08518794e-03
      1.59778097e-03 1.45452330e-03 1.96082424e-03 1.46182894e-03
      1.25573657e-03 1.04028685e-03 7.74607703e-04 4.68601065e-04
      4.67355014e-04 5.43245114e-05 2.12772400e-04 8.56199767e-06</_>
    <_>
      -2.32668500e-03 1.89413026e-03 1.28424272e-03 -7.35200665e-05
      1.37636520e-03 2.48449575e-03 1.55736355e-03 3.94474948e-03
      3.69109074e-03 3.90056334e-03 3.88749689e-03 3.09481239e-03
      2.78079836e-03 2.10082973e-03 1.58358435e-03 1.01066590e-03
      8.86824739e-04 1.67260412e-04 -1.11148111e-04 -4.78261150e-04</_>
    <_>
      -2.52709887e-03 1.76682207e-03 1.01869681e-03 -4.86241479e-04
      6.00673317e-04 1.55036838e-03 1.33605208e-05 2.10657436e-03
      1.63054687e-03 1.45628839e-03 1.96651509e-03 1.43890129e-03
      1.16600422e-03 9.06525704e-04 5.82843611e-04 2.02267081e-04
      4.69833030e-05 -4.13343252e-04 -3.78009368e-04 -5.72773337e-04</_>
    <_>
      -2.34587211e-03 2.09176634e-03 1.38810626e-03 2.55482155e-05
      1.57325203e-03 2.96373107e-03 1.71070080e-03 4.54428839e-03
      4.17667674e-03 4.28331178e-03 4.37602401e-03 3.43943713e-03
      2.98759993e-03 2.18735076e-03 1.52099587e-03 7.66206766e-04
      4.63293283e-04 -3.69263929e-04 -6.95653318e-04 -1.08227879e-03</_>
    <_>
      -2.56819744e-03 1.70962850e-03 9.57350887e-04 -5.78076812e-04
      4.11341200e-04 1.29447784e-03 -3.22380627e-04 1.65586616e-03
      1.13810145e-03 9.27458284e-04 1.53599237e-03 1.11634587e-03
      9.20818653e-04 8.04300013e-04 5.90590585e-04 3.32387572e-04
      3.45805194e-04 -2.35819025e-05 1.89817045e-04 3.49476468e-05</_>
    <_>
      -2.42617307e-03 1.95619930e-03 1.23783690e-03 -1.81540017e-04
      1.16714579e-03 2.38522538e-03 1.01996248e-03 3.56777245e-03
      3.15510109e-03 3.19791259e-03 3.47339478e-03 2.75124446e-03
      2.45421333e-03 1.95755926e-03 1.50151993e-03 9.89231281e-04
      9.73099261e-04 3.00090120e-04 2.89830961e-04 -7.36349029e-05</_>
    <_>
      -2.38530338e-03 2.03120941e-03 1.33349991e-03 -5.05660864e-05
      1.40097225e-03 2.72413716e-03 1.44243333e-03 4.16368572e-03
      3.77299031e-03 3.89231811e-03 4.04771697e-03 3.22026061e-03
      2.89802765e-03 2.27278704e-03 1.74047309e-03 1.15119596e-03
      1.11753261e-03 3.77092976e-04 2.86296010e-04 -1.30170374e-04</_>
    <_>
      -2.45952234e-03 1.88468141e-03 1.13820075e-03 -2.84040114e-04
      9.73933144e-04 2.12182221e-03 6.99099735e-04 3.10123176e-03
      2.68115848e-03 2.65755970e-03 3.02878488e-03 2.38010427e-03
      2.09451630e-03 1.66930922e-03 1.27870135e-03 8.16153013e-04
      7.78384099e-04 1.63855148e-04 1.98769267e-04 -1.39762997e-04</_>
    <_>
      -2.50594458e-03 1.72236271e-03 9.71674686e-04 -4.52190783e-04
      5.68963238e-04 1.51650363e-03 3.86651955e-05 2.08653859e-03
      1.61416188e-03 1.47925573e-03 1.98960025e-03 1.47559389e-03
      1.28625287e-03 1.03328307e-03 7.98530702e-04 5.14918764e-04
      5.02514187e-04 1.38220377e-04 3.01558699e-04 7.18958327e-05</_>
    <_>
      -2.27067852e-03 2.04264699e-03 1.33952533e-03 1.65805424e-04
      1.66406902e-03 3.10365972e-03 2.04358972e-03 4.88256663e-03
      4.56199376e-03 4.77567269e-03 4.77922847e-03 3.76684894e-03
      3.40128201e-03 2.47589173e-03 1.87192648e-03 1.17751781e-03
      9.46640212e-04 1.97605928e-04 -1.14814145e-04 -6.28862472e-04</_>
    <_>
      -2.00748071e-03 8.70605232e-04 -3.99243843e-04 5.01430128e-04
      -2.69937358e-04 1.34893681e-03 4.02580597e-04 2.25842814e-03
      1.77670433e-03 1.87177910e-03 2.82785762e-03 1.84908754e-03
      2.22435058e-03 8.19352281e-04 1.72480603e-03 2.18435540e-03
      2.07819813e-03 3.53324180e-03 4.16693510e-03 3.04649677e-03</_>
    <_>
      -2.61607557e-03 1.59790146e-03 8.20453919e-04 -7.45994388e-04
      9.79480101e-05 8.34507169e-04 -8.36852414e-04 9.10870964e-04
      4.19936026e-04 2.36548600e-04 1.01471751e-03 8.93736025e-04
      9.63945931e-04 1.27948506e-03 1.42096041e-03 1.61789777e-03
      2.48047849e-03 2.34888960e-03 3.29061085e-03 3.00692325e-03</_>
    <_>
      -2.58184504e-03 1.64925144e-03 8.73380690e-04 -6.60190766e-04
      2.52884813e-04 1.04704290e-03 -5.87573566e-04 1.23063964e-03
      7.17824209e-04 4.58410243e-04 1.13882776e-03 7.88145699e-04
      6.20362116e-04 5.89622185e-04 4.50069201e-04 2.78511317e-04
      3.29721370e-04 5.27909724e-05 3.92173300e-04 2.75956350e-04</_>
    <_>
      -2.57710903e-03 1.69896311e-03 9.43493331e-04 -6.00907544e-04
      3.64839332e-04 1.22713041e-03 -4.08579130e-04 1.53363089e-03
      1.00711954e-03 7.78725138e-04 1.41044776e-03 1.01133040e-03
      8.29425058e-04 7.47001905e-04 5.57908555e-04 3.29444651e-04
      3.71671049e-04 4.04226594e-05 3.08322080e-04 1.71353691e-04</_>
    <_>
      -2.44499161e-03 1.92388881e-03 1.19434891e-03 -2.36329128e-04
      1.06030609e-03 2.24194420e-03 8.17256281e-04 3.28660011e-03
      2.84469826e-03 2.81485566e-03 3.14462907e-03 2.44112359e-03
      2.10599974e-03 1.59726897e-03 1.13364880e-03 5.90667187e-04
      4.39504976e-04 -2.00351700e-04 -3.03825655e-04 -5.96416008e-04</_>
    <_>
      -2.48521171e-03 1.85943395e-03 1.12986518e-03 -3.38129816e-04
      8.65973940e-04 1.95872341e-03 4.84448741e-04 2.81873019e-03
      2.35900166e-03 2.30586436e-03 2.72038742e-03 2.12909468e-03
      1.88662589e-03 1.55749358e-03 1.21257745e-03 8.19431385e-04
      8.71008087e-04 3.22341628e-04 4.30484710e-04 1.40650023e-04</_>
    <_>
      -2.48599332e-03 1.84467877e-03 1.11236330e-03 -3.49407695e-04
      8.42076144e-04 1.92098855e-03 4.48265288e-04 2.75090546e-03
      2.29030987e-03 2.22970452e-03 2.64724297e-03 2.05818773e-03
      1.80353306e-03 1.44985749e-03 1.09197898e-03 6.74123177e-04
      6.61050552e-04 1.03449915e-04 1.51679385e-04 -1.15156290e-04</_>
    <_>
      -2.47164187e-03 1.87432347e-03 1.15265907e-03 -2.95645528e-04
      9.29773436e-04 2.04277481e-03 6.19993429e-04 2.97798053e-03
      2.52920995e-03 2.50044977e-03 2.85727181e-03 2.21948279e-03
      1.96206360e-03 1.56499550e-03 1.18003762e-03 7.43784942e-04
      7.19325151e-04 1.56459282e-04 1.85227604e-04 -1.14320777e-04</_>
    <_>
      -2.54263612e-03 1.73555547e-03 9.86116705e-04 -5.22487273e-04
      5.56055573e-04 1.49744167e-03 -8.43910093e-05 1.99655979e-03
      1.52597402e-03 1.36357278e-03 1.90893281e-03 1.43010251e-03
      1.20028807e-03 1.01883826e-03 7.50841573e-04 4.23044781e-04
      4.11488581e-04 -6.87005231e-05 8.26634932e-05 -1.29619089e-04</_>
    <_>
      -2.52392958e-03 1.57117262e-03 9.89622436e-04 -5.64251561e-04
      4.63575445e-04 1.28604937e-03 -2.05548567e-04 1.72743434e-03
      1.23871863e-03 1.05689513e-03 1.55479461e-03 1.07563392e-03
      9.30640846e-04 7.91337050e-04 6.13974989e-04 3.79659410e-04
      4.16417432e-04 7.68690370e-05 1.41862023e-04 6.56617340e-06</_>
    <_>
      -2.46245158e-03 1.88106345e-03 1.16095366e-03 -2.81237997e-04
      9.59541299e-04 2.07636156e-03 6.70446549e-04 3.03990021e-03
      2.59965356e-03 2.57563218e-03 2.91697937e-03 2.26202002e-03
      1.99777819e-03 1.58722477e-03 1.19336531e-03 7.51451647e-04
      7.13859685e-04 1.49809057e-04 1.77169451e-04 -1.25909341e-04</_>
    <_>
      -2.50368356e-03 1.38296082e-03 9.67012893e-04 -6.26991095e-04
      3.71236616e-04 1.06089283e-03 -3.53444950e-04 1.41442311e-03
      9.33760719e-04 7.15762377e-04 1.16390572e-03 6.71046553e-04
      5.77646075e-04 4.71342122e-04 3.67356377e-04 1.95007480e-04
      2.07303383e-04 -2.96531944e-05 -9.31974500e-05 -1.47500774e-04</_>
    <_>
      -1.39942952e-03 -4.73305723e-03 4.39460855e-03 -3.44349013e-04
      2.31868098e-03 2.46573729e-03 2.53630499e-03 5.89685421e-03
      4.30126162e-03 3.46703595e-03 6.84113242e-04 -2.51360284e-03
      -8.72842153e-04 -1.54404948e-03 2.58330489e-04 8.62221234e-04
      2.75167380e-03 4.72301152e-03 -3.03830090e-03 -7.83448340e-04</_>
    <_>
      -2.51069781e-03 1.78796821e-03 1.04299956e-03 -4.52051638e-04
      6.69371162e-04 1.64801930e-03 1.11330533e-04 2.26478651e-03
      1.79655617e-03 1.65660563e-03 2.16242694e-03 1.64939626e-03
      1.42465194e-03 1.21299922e-03 9.48452274e-04 6.53170864e-04
      7.32120359e-04 3.08055780e-04 5.49768796e-04 3.27145273e-04</_>
    <_>
      -2.50556786e-03 1.78752211e-03 1.04153901e-03 -4.43794590e-04
      6.91208581e-04 1.67735911e-03 1.54682901e-04 2.31544534e-03
      1.85255473e-03 1.71792414e-03 2.20636674e-03 1.66616135e-03
      1.41107547e-03 1.14787417e-03 8.37503874e-04 4.78248228e-04
      4.40646429e-04 -4.05405881e-05 9.27579822e-05 -1.17382733e-04</_>
    <_>
      -2.40210164e-03 2.01611081e-03 1.30629470e-03 -9.38522862e-05
      1.33156020e-03 2.64366367e-03 1.30023668e-03 3.99655569e-03
      3.58326896e-03 3.65059054e-03 3.85818607e-03 3.04386672e-03
      2.67803087e-03 2.03950610e-03 1.47964293e-03 8.35522369e-04
      6.73999661e-04 -9.71620320e-05 -3.13727302e-04 -6.97414449e-04</_>
    <_>
      -2.48706108e-03 1.84645876e-03 1.11143582e-03 -3.53960815e-04
      8.48215423e-04 1.92977814e-03 4.55447414e-04 2.76758429e-03
      2.31505558e-03 2.25442508e-03 2.67087761e-03 2.07478111e-03
      1.81017572e-03 1.45897130e-03 1.08732097e-03 6.51133247e-04
      6.15054974e-04 2.87021394e-05 4.89195809e-05 -2.39648856e-04</_>
    <_>
      -2.42042379e-03 1.97665836e-03 1.26261485e-03 -1.52015666e-04
      1.22157473e-03 2.47841096e-03 1.11356424e-03 3.72208213e-03
      3.30462819e-03 3.36069847e-03 3.61763500e-03 2.87099835e-03
      2.55781249e-03 2.01991480e-03 1.53110747e-03 9.76613024e-04
      9.35964636e-04 2.18676752e-04 1.37412106e-04 -2.38388893e-04</_>
    <_>
      -2.62605865e-03 1.59176753e-03 8.23828159e-04 -7.59240473e-04
      6.63988176e-05 7.81736861e-04 -9.34879296e-04 7.60742696e-04
      2.03842297e-04 -1.19581819e-04 6.37845602e-04 3.62646184e-04
      2.25672848e-04 2.93505960e-04 2.06475903e-04 8.66629416e-05
      1.46809034e-04 -6.01148931e-05 3.06881440e-04 2.56134430e-04</_>
    <_>
      -2.46107532e-03 1.82310620e-03 1.02927571e-03 -4.00208810e-04
      8.04016425e-04 1.75659079e-03 4.44360718e-04 2.50065513e-03
      2.15851283e-03 2.12719571e-03 2.54435022e-03 2.02166243e-03
      1.76568516e-03 1.46973843e-03 1.12687761e-03 7.01951212e-04
      6.94783288e-04 1.44376012e-04 2.96993298e-04 5.13636041e-06</_>
    <_>
      9.64713749e-03 -1.56368893e-02 -1.95861608e-02 -1.82759874e-02
      -7.40152877e-03 -5.67897260e-02 2.26401724e-02 -6.03778511e-02
      -5.73814288e-03 3.28687690e-02 2.24319170e-03 3.27043086e-02
      3.10561322e-02 3.68479826e-02 2.38044485e-02 2.91874055e-02
      2.80573033e-02 1.20435096e-02 2.06782129e-02 2.62161456e-02</_>
    <_>
      -2.43501342e-03 1.82564964e-03 1.14190695e-03 -2.95083388e-04
      9.56588367e-04 1.98062323e-03 7.38301664e-04 2.96450756e-03
      2.59445608e-03 2.62439717e-03 2.89683812e-03 2.26980122e-03
      2.01907381e-03 1.59585173e-03 1.20227190e-03 7.63428048e-04
      7.11790926e-04 1.30127301e-04 7.84770818e-05 -2.26566335e-04</_>
    <_>
      -2.43820390e-03 1.92372547e-03 1.21015846e-03 -2.12444837e-04
      1.09196838e-03 2.26917327e-03 9.00546089e-04 3.37464432e-03
      2.94978614e-03 2.96663074e-03 3.25229904e-03 2.54303915e-03
      2.25836644e-03 1.78035034e-03 1.34369172e-03 8.54924845e-04
      8.08980898e-04 1.90018560e-04 1.74810062e-04 -1.61877368e-04</_>
    <_>
      -2.30836356e-03 1.92392245e-03 1.30764872e-03 -3.79635458e-05
      1.45078287e-03 2.58995104e-03 1.69349718e-03 4.12083371e-03
      3.88271804e-03 4.11813287e-03 4.08086181e-03 3.26526305e-03
      2.95067742e-03 2.22736364e-03 1.66991202e-03 1.06504757e-03
      9.26570618e-04 1.79302006e-04 -1.20140263e-04 -5.16922097e-04</_>
    <_>
      -2.46135215e-03 1.88556244e-03 1.15408818e-03 -2.96620041e-04
      9.58337216e-04 2.07530870e-03 6.50783884e-04 3.01977550e-03
      2.59066280e-03 2.55076960e-03 2.90936069e-03 2.25831289e-03
      1.96117628e-03 1.54272525e-03 1.12842221e-03 6.57939585e-04
      5.69662836e-04 -1.95940374e-05 -2.01669172e-05 -3.12450458e-04</_>
    <_>
      -2.35854741e-03 2.06764741e-03 1.36073690e-03 -8.87519855e-06
      1.50659902e-03 2.86964886e-03 1.61304639e-03 4.39559855e-03
      4.03362513e-03 4.15885216e-03 4.27941978e-03 3.39990319e-03
      3.00782756e-03 2.29196553e-03 1.68722065e-03 1.01181737e-03
      8.52185767e-04 5.11344988e-05 -1.41865399e-04 -5.51955251e-04</_>
    <_>
      -2.57965946e-03 1.68213190e-03 9.21069644e-04 -6.19357452e-04
      3.37659381e-04 1.18755805e-03 -4.40212549e-04 1.46744214e-03
      9.51970986e-04 7.29447347e-04 1.36553321e-03 9.84025421e-04
      7.97971385e-04 7.06214691e-04 5.08153462e-04 2.61724519e-04
      2.76446226e-04 -8.31059879e-05 1.30876550e-04 -8.07683682e-06</_>
    <_>
      -2.43488606e-03 1.94003596e-03 1.21913070e-03 -2.07896970e-04
      1.11722830e-03 2.31332518e-03 9.31090442e-04 3.43747041e-03
      3.01852915e-03 3.04345600e-03 3.34066362e-03 2.63759354e-03
      2.34829402e-03 1.87526818e-03 1.43697136e-03 9.43354040e-04
      9.27581685e-04 2.81949411e-04 2.92387325e-04 -5.36846928e-05</_>
    <_>
      -2.40304414e-03 1.99900288e-03 1.29692908e-03 -1.01341910e-04
      1.30546349e-03 2.58459849e-03 1.27540249e-03 3.92367970e-03
      3.52246873e-03 3.61166010e-03 3.80698079e-03 3.01519549e-03
      2.70555145e-03 2.12653214e-03 1.61927054e-03 1.05665589e-03
      1.01678353e-03 3.04933637e-04 2.27445387e-04 -1.69756473e-04</_>
    <_>
      -2.47678719e-03 1.85251003e-03 1.10278919e-03 -3.26873851e-04
      8.92362325e-04 2.00890377e-03 5.66643896e-04 2.90583563e-03
      2.47814762e-03 2.43594847e-03 2.84149358e-03 2.23181117e-03
      1.95589336e-03 1.56818191e-03 1.21157872e-03 7.79495400e-04
      7.47439219e-04 1.74611690e-04 2.40967434e-04 -8.90851952e-05</_>
    <_>
      -2.43640784e-03 1.84913841e-03 1.11777219e-03 -2.46428215e-04
      9.61336540e-04 2.08630483e-03 7.33551744e-04 3.09261330e-03
      2.66146497e-03 2.64814729e-03 2.98635522e-03 2.32195482e-03
      2.05646083e-03 1.60903030e-03 1.24701357e-03 8.18873988e-04
      7.74783723e-04 2.43346789e-04 2.62074638e-04 -7.50798499e-05</_>
    <_>
      -2.59617600e-03 1.63828861e-03 8.85701855e-04 -6.64425606e-04
      2.37049535e-04 1.02364575e-03 -6.02589338e-04 1.20983901e-03
      6.83878199e-04 4.26118320e-04 1.07403344e-03 7.00377277e-04
      5.30935242e-04 4.78456059e-04 3.02445027e-04 8.86877533e-05
      4.29869979e-05 -2.55074061e-04 -5.55132865e-05 -1.83721306e-04</_>
    <_>
      -2.25865026e-03 2.06598011e-03 1.36831531e-03 2.11678343e-04
      1.75148738e-03 3.22787976e-03 2.19999952e-03 5.12049906e-03
      4.79515316e-03 5.03248395e-03 4.99753188e-03 3.97894857e-03
      3.57642164e-03 2.63402541e-03 2.02325801e-03 1.30853569e-03
      1.11006596e-03 3.25471221e-04 5.94044104e-06 -5.33163082e-04</_>
    <_>
      -2.06357823e-03 7.92678911e-04 -4.48375358e-04 4.97242087e-04
      -2.32303602e-04 1.31956465e-03 4.84540564e-04 2.57639773e-03
      1.84966216e-03 1.80010998e-03 2.71019596e-03 2.15565343e-03
      1.97540899e-03 9.68976761e-04 2.01215292e-03 2.40396615e-03
      2.50514224e-03 3.80984833e-03 4.41152602e-03 3.22024338e-03</_>
    <_>
      -2.53327331e-03 1.74817606e-03 9.92416986e-04 -5.05023811e-04
      5.54710627e-04 1.50512834e-03 -2.62630638e-05 2.07907986e-03
      1.64441299e-03 1.61905121e-03 2.20151618e-03 1.91310095e-03
      1.92767195e-03 2.02258863e-03 2.03436357e-03 2.09134305e-03
      2.98496103e-03 2.67667323e-03 3.50866839e-03 3.09881056e-03</_>
    <_>
      -2.53222510e-03 1.73892500e-03 9.77313030e-04 -5.11395396e-04
      5.36405889e-04 1.46576820e-03 -7.37701484e-05 1.96902128e-03
      1.49340904e-03 1.33406371e-03 1.88477745e-03 1.42122270e-03
      1.20463269e-03 1.02217519e-03 7.83343043e-04 4.96464723e-04
      5.09880600e-04 9.57271550e-05 2.98350467e-04 8.72426899e-05</_>
    <_>
      -2.49257754e-03 1.85203913e-03 1.11861248e-03 -3.56724195e-04
      8.30095552e-04 1.90611731e-03 4.16369992e-04 2.72070197e-03
      2.25279829e-03 2.17637606e-03 2.60483054e-03 2.01471592e-03
      1.76148769e-03 1.43447844e-03 1.08435028e-03 6.81357749e-04
      6.78520300e-04 1.44923804e-04 2.33792467e-04 -3.21454136e-05</_>
    <_>
      -2.54222029e-03 1.74756127e-03 9.92916059e-04 -5.14317071e-04
      5.30671270e-04 1.47348968e-03 -1.17318821e-04 1.94172491e-03
      1.43241440e-03 1.23151299e-03 1.79120584e-03 1.30559062e-03
      1.04596408e-03 8.05694610e-04 5.20252681e-04 1.64239318e-04
      4.86717327e-05 -3.72010749e-04 -3.00366955e-04 -4.49141604e-04</_>
    <_>
      -2.43228953e-03 1.95555133e-03 1.23951992e-03 -1.87669648e-04
      1.15160446e-03 2.37374194e-03 9.82952537e-04 3.53666022e-03
      3.10961180e-03 3.13962088e-03 3.43118864e-03 2.71797366e-03
      2.42638774e-03 1.94300083e-03 1.49965729e-03 1.00153778e-03
      1.01482030e-03 3.62632098e-04 3.74720548e-04 2.18837522e-05</_>
    <_>
      -2.43197288e-03 1.94238650e-03 1.22383307e-03 -1.95691275e-04
      1.13466929e-03 2.34539947e-03 9.62919905e-04 3.48905730e-03
      3.06547666e-03 3.09500168e-03 3.38605372e-03 2.67337193e-03
      2.37524207e-03 1.87267386e-03 1.41959032e-03 9.00668150e-04
      8.61522683e-04 1.95249741e-04 1.55615038e-04 -1.86444551e-04</_>
    <_>
      -2.48532882e-03 1.84930337e-03 1.12372963e-03 -3.35027085e-04
      8.55470891e-04 1.93329016e-03 4.90350241e-04 2.79153720e-03
      2.33552558e-03 2.28595454e-03 2.67568394e-03 2.06760550e-03
      1.82554452e-03 1.47152308e-03 1.11266191e-03 7.04836682e-04
      6.93826354e-04 1.57133793e-04 2.14914442e-04 -7.23188277e-05</_>
    <_>
      -2.55030720e-03 1.72263221e-03 9.74377093e-04 -5.39501663e-04
      5.18860470e-04 1.45156123e-03 -1.42728240e-04 1.90952292e-03
      1.43409777e-03 1.26563490e-03 1.82030513e-03 1.36463577e-03
      1.13969832e-03 9.78542841e-04 7.26300816e-04 4.15101589e-04
      4.15191636e-04 -4.20165015e-05 1.23345526e-04 -8.16964894e-05</_>
    <_>
      -2.41648080e-03 1.76888169e-03 1.21483067e-03 -2.54631770e-04
      1.04465766e-03 2.14691134e-03 8.21766502e-04 3.19789583e-03
      2.78536184e-03 2.79151858e-03 3.03680892e-03 2.31118151e-03
      2.08732928e-03 1.63139380e-03 1.26834679e-03 8.27257521e-04
      8.19313980e-04 2.55117076e-04 1.33123016e-04 -1.44700636e-04</_>
    <_>
      -2.43018288e-03 1.93946715e-03 1.22722588e-03 -1.88776088e-04
      1.13542145e-03 2.33261171e-03 9.80199431e-04 3.48624145e-03
      3.06703523e-03 3.09976004e-03 3.36629781e-03 2.64055957e-03
      2.35093781e-03 1.84883026e-03 1.39688305e-03 8.92160751e-04
      8.45414412e-04 2.08444544e-04 1.77617883e-04 -1.69458392e-04</_>
    <_>
      -2.45190877e-03 1.48216682e-03 1.07905222e-03 -4.74511908e-04
      6.45311899e-04 1.49152288e-03 1.42091390e-04 2.11114250e-03
      1.67796353e-03 1.56910392e-03 1.89667486e-03 1.28703995e-03
      1.18747656e-03 9.22827167e-04 7.57051515e-04 5.05383650e-04
      5.48063719e-04 2.15182838e-04 1.08340988e-04 -1.49982516e-05</_>
    <_>
      -1.32924796e-03 -4.43026377e-03 4.63685906e-03 -4.60664451e-05
      2.43618246e-03 3.32355383e-03 3.09086870e-03 6.28764462e-03
      5.18149091e-03 4.62466152e-03 1.92179845e-03 -2.09397124e-03
      1.31515117e-04 -1.24691019e-03 9.31272807e-04 1.21474895e-03
      3.21211666e-03 5.21349767e-03 -2.33749487e-03 -3.17272876e-04</_>
    <_>
      -2.39938474e-03 1.98980444e-03 1.27535395e-03 -1.27578576e-04
      1.28594320e-03 2.55434099e-03 1.20982539e-03 3.84378131e-03
      3.45234037e-03 3.52139771e-03 3.75372311e-03 2.99891760e-03
      2.68108794e-03 2.14278186e-03 1.66833820e-03 1.14455866e-03
      1.17616972e-03 4.82032832e-04 4.86735080e-04 9.48312809e-05</_>
    <_>
      -2.45657726e-03 1.87677785e-03 1.14624389e-03 -2.97530030e-04
      9.68180771e-04 2.09033722e-03 6.52805611e-04 3.03046824e-03
      2.60131783e-03 2.56300182e-03 2.92322878e-03 2.27789790e-03
      1.97494356e-03 1.55645818e-03 1.14663981e-03 6.76634547e-04
      6.03118038e-04 -5.19852620e-06 -2.50327867e-06 -2.89626187e-04</_>
    <_>
      -2.37775641e-03 2.06040125e-03 1.35681441e-03 -2.54376937e-05
      1.46180310e-03 2.83049163e-03 1.52734201e-03 4.32250928e-03
      3.92541569e-03 4.03005397e-03 4.18134686e-03 3.31041776e-03
      2.92392541e-03 2.22142879e-03 1.61959464e-03 9.32684052e-04
      7.58136506e-04 -5.69963013e-05 -3.07222421e-04 -7.22861208e-04</_>
    <_>
      -2.41048192e-03 1.98597088e-03 1.27178710e-03 -1.35136273e-04
      1.26371928e-03 2.53324932e-03 1.18207280e-03 3.81251192e-03
      3.40793771e-03 3.46601312e-03 3.70052783e-03 2.92590819e-03
      2.58514751e-03 2.01153755e-03 1.49474165e-03 9.03755543e-04
      8.00331938e-04 6.14459859e-05 -6.84030820e-05 -4.52108216e-04</_>
    <_>
      -2.43729400e-03 1.94597896e-03 1.22715742e-03 -2.00902374e-04
      1.12937135e-03 2.34454451e-03 9.52990493e-04 3.48988757e-03
      3.06206150e-03 3.09080444e-03 3.38630402e-03 2.67783785e-03
      2.37897225e-03 1.88793964e-03 1.42923568e-03 9.06533678e-04
      8.71339289e-04 1.88042759e-04 1.33393914e-04 -2.21139053e-04</_>
    <_>
      -2.59949919e-03 1.63883541e-03 8.84618785e-04 -6.65071013e-04
      2.30279111e-04 1.02292944e-03 -6.17945450e-04 1.20205455e-03
      6.66231033e-04 4.09587577e-04 1.07042619e-03 7.10468739e-04
      5.51805831e-04 5.11136721e-04 3.51005088e-04 1.52551860e-04
      1.54096459e-04 -1.41392287e-04 8.89886869e-05 -3.50201735e-05</_>
    <_>
      -2.50393478e-03 1.74677861e-03 9.48577072e-04 -5.14400774e-04
      5.87327697e-04 1.45560224e-03 7.43709097e-05 1.97530515e-03
      1.60370639e-03 1.51373062e-03 2.01901025e-03 1.59996341e-03
      1.39045098e-03 1.20266690e-03 9.16876888e-04 5.62719011e-04
      5.85849280e-04 1.24403392e-04 3.30736570e-04 7.70817860e-05</_>
    <_>
      9.01032984e-03 -1.63993500e-02 -2.03876998e-02 -1.93265826e-02
      -1.22598447e-02 -6.07011840e-02 1.97629780e-02 -6.83316737e-02
      -1.12432605e-02 3.03177573e-02 -4.38881805e-04 3.59684825e-02
      4.23739329e-02 4.72050421e-02 3.21517885e-02 2.91889813e-02
      2.77031921e-02 1.48633337e-02 1.15793403e-02 1.04160290e-02</_>
    <_>
      -2.39620986e-03 1.89589767e-03 1.21916714e-03 -1.86984078e-04
      1.16271549e-03 2.28123227e-03 1.10278605e-03 3.48349777e-03
      3.13678477e-03 3.23472917e-03 3.42223095e-03 2.71972618e-03
      2.44410383e-03 1.91513426e-03 1.45213655e-03 9.37122502e-04
      8.80701933e-04 2.15866603e-04 9.96307936e-05 -2.57520587e-04</_>
    <_>
      -2.46151630e-03 1.88115344e-03 1.16155320e-03 -2.77994433e-04
      9.67867440e-04 2.09010718e-03 6.86655170e-04 3.06666968e-03
      2.62882607e-03 2.61351303e-03 2.95177149e-03 2.29659677e-03
      2.03485950e-03 1.62276113e-03 1.22775696e-03 7.82568590e-04
      7.54769600e-04 1.74030080e-04 1.94351305e-04 -1.19946373e-04</_>
    <_>
      -2.31527374e-03 1.91073609e-03 1.28702784e-03 -6.39887876e-05
      1.40461279e-03 2.52196379e-03 1.62150478e-03 4.00370080e-03
      3.76236346e-03 3.99358664e-03 3.97997070e-03 3.19634308e-03
      2.90299556e-03 2.20958516e-03 1.66136317e-03 1.06368330e-03
      9.39392485e-04 1.97416579e-04 -9.41822655e-05 -4.98658570e-04</_>
    <_>
      -2.49751261e-03 1.82011083e-03 1.08041835e-03 -3.97678465e-04
      7.65332137e-04 1.79966085e-03 3.17231024e-04 2.54016719e-03
      2.08813185e-03 1.99076999e-03 2.42912490e-03 1.85599097e-03
      1.58468075e-03 1.25401444e-03 8.93559307e-04 4.74096683e-04
      3.80600744e-04 -1.41859346e-04 -1.14600232e-04 -3.63197702e-04</_>
    <_>
      -2.38757744e-03 2.01509660e-03 1.30199466e-03 -8.92099488e-05
      1.35292369e-03 2.65151565e-03 1.35004858e-03 4.01710346e-03
      3.63768893e-03 3.71889025e-03 3.90173960e-03 3.08418367e-03
      2.71277339e-03 2.06471537e-03 1.50028802e-03 8.61570996e-04
      6.94221293e-04 -5.65655064e-05 -2.36087653e-04 -6.14800898e-04</_>
    <_>
      -2.56113359e-03 1.72755541e-03 9.76543990e-04 -5.53205376e-04
      4.57800517e-04 1.36543321e-03 -2.40848574e-04 1.77595555e-03
      1.26058422e-03 1.05565763e-03 1.64221693e-03 1.19104015e-03
      9.74904571e-04 8.17351800e-04 5.70148928e-04 2.70651653e-04
      2.29784288e-04 -1.66879909e-04 -1.83468219e-05 -1.85593846e-04</_>
    <_>
      -2.54587340e-03 1.74361269e-03 9.91900335e-04 -5.22602350e-04
      5.21120615e-04 1.45366252e-03 -1.16934883e-04 1.93185289e-03
      1.43929664e-03 1.27334264e-03 1.82905130e-03 1.37048820e-03
      1.15689426e-03 9.71783593e-04 7.12031208e-04 4.01377678e-04
      3.99216660e-04 -2.68379226e-05 1.30842556e-04 -5.56892483e-05</_>
    <_>
      -2.47035618e-03 1.87561160e-03 1.14612165e-03 -3.09516472e-04
      9.24402673e-04 2.03284156e-03 5.92390657e-04 2.94977124e-03
      2.50762119e-03 2.46778317e-03 2.84518208e-03 2.21349928e-03
      1.94508093e-03 1.56118767e-03 1.17667019e-03 7.36813352e-04
      7.03401864e-04 1.31716835e-04 1.77908689e-04 -1.20210869e-04</_>
    <_>
      -2.38241046e-03 2.03633285e-03 1.33906235e-03 -4.33321693e-05
      1.41625723e-03 2.74520344e-03 1.46794925e-03 4.20031371e-03
      3.81208141e-03 3.93269444e-03 4.08217916e-03 3.24223307e-03
      2.91334209e-03 2.27405806e-03 1.72879500e-03 1.12640334e-03
      1.07162760e-03 3.16308229e-04 1.99050060e-04 -2.20866641e-04</_>
    <_>
      -2.47764844e-03 1.85192388e-03 1.10751088e-03 -3.19314306e-04
      9.04354500e-04 2.02984363e-03 5.92355093e-04 2.94922478e-03
      2.51790415e-03 2.48309667e-03 2.87768431e-03 2.27923412e-03
      1.99145149e-03 1.59553241e-03 1.22770970e-03 7.77393463e-04
      7.36767543e-04 1.64182857e-04 2.05527642e-04 -1.42460165e-04</_>
    <_>
      -2.54928134e-03 1.64464070e-03 8.87281785e-04 -5.58134285e-04
      3.68768175e-04 1.23081286e-03 -3.04611196e-04 1.60989678e-03
      1.09887449e-03 9.14915989e-04 1.50310539e-03 1.10632612e-03
      9.26770037e-04 7.81334238e-04 6.07571390e-04 3.71889037e-04
      3.83342500e-04 5.12618572e-05 2.20125716e-04 2.05514953e-05</_>
    <_>
      -2.48239655e-03 1.84431428e-03 1.12076465e-03 -3.35199002e-04
      8.62953137e-04 1.94096542e-03 5.05293719e-04 2.80589098e-03
      2.35525845e-03 2.30352208e-03 2.68192589e-03 2.05837772e-03
      1.79507397e-03 1.40917278e-03 1.02070521e-03 5.74182021e-04
      4.84698103e-04 -8.53458769e-05 -1.19720644e-04 -4.09151369e-04</_>
    <_>
      -2.23187986e-03 2.11639469e-03 1.43144582e-03 3.01144260e-04
      1.92109041e-03 3.46837658e-03 2.48645502e-03 5.54997986e-03
      5.22806961e-03 5.51879639e-03 5.40164066e-03 4.34300862e-03
      3.90043645e-03 2.88814958e-03 2.22036056e-03 1.44393509e-03
      1.24490401e-03 3.94570408e-04 2.29951693e-05 -5.60338609e-04</_>
    <_>
      -2.08453671e-03 7.75595196e-04 -3.74735537e-04 6.29491406e-04
      3.78182594e-05 1.57964847e-03 7.49358733e-04 3.19599686e-03
      2.24612514e-03 2.23589665e-03 2.92056822e-03 2.73267506e-03
      2.21019215e-03 1.39865733e-03 2.32212082e-03 2.58884369e-03
      2.79720151e-03 4.02102992e-03 4.51802462e-03 3.20033357e-03</_>
    <_>
      -2.53101997e-03 1.75289845e-03 9.99476993e-04 -4.94837877e-04
      5.72665827e-04 1.53424242e-03 1.02997292e-05 2.13583605e-03
      1.70414895e-03 1.69478322e-03 2.26639048e-03 1.98434200e-03
      2.00647628e-03 2.10657320e-03 2.12335703e-03 2.18358357e-03
      3.11842700e-03 2.80766096e-03 3.65575147e-03 3.22268135e-03</_>
    <_>
      -2.50730384e-03 1.78508274e-03 1.03243929e-03 -4.35173046e-04
      6.78096665e-04 1.67388842e-03 1.77108799e-04 2.33387691e-03
      1.87158107e-03 1.75949023e-03 2.24398985e-03 1.72959687e-03
      1.49057608e-03 1.23840442e-03 9.53417388e-04 6.12268399e-04
      6.21180166e-04 1.58245908e-04 3.17462604e-04 6.68910216e-05</_>
    <_>
      -2.47419672e-03 1.88543042e-03 1.15670904e-03 -3.04598070e-04
      9.29287693e-04 2.04935926e-03 5.90209849e-04 2.97045358e-03
      2.51483428e-03 2.46828166e-03 2.85389880e-03 2.22186418e-03
      1.95335387e-03 1.57658989e-03 1.19414798e-03 7.57518865e-04
      7.46234437e-04 1.76166999e-04 2.36320018e-04 -5.45009971e-05</_>
    <_>
      -2.50213430e-03 1.81486993e-03 1.07850810e-03 -3.93109745e-04
      7.59226386e-04 1.80615613e-03 3.07005481e-04 2.54782825e-03
      2.07693642e-03 1.99380144e-03 2.44495180e-03 1.88860833e-03
      1.64143648e-03 1.31405704e-03 9.72975569e-04 5.64848306e-04
      5.33208600e-04 -6.59603393e-06 2.79532978e-05 -2.20469316e-04</_>
    <_>
      -2.42953841e-03 1.74725172e-03 1.18865003e-03 -2.89661926e-04
      9.68823093e-04 2.05027359e-03 7.01375306e-04 3.01736617e-03
      2.60199700e-03 2.59171706e-03 2.87262793e-03 2.16729706e-03
      1.96104217e-03 1.52586075e-03 1.19361654e-03 7.58897047e-04
      7.55884161e-04 2.11643171e-04 8.84608598e-05 -1.77974114e-04</_>
    <_>
      -2.39689276e-03 1.99957564e-03 1.29554723e-03 -9.25567729e-05
      1.31851784e-03 2.60050665e-03 1.30517408e-03 3.95424152e-03
      3.55800707e-03 3.65428301e-03 3.84267746e-03 3.04711168e-03
      2.73469253e-03 2.14024493e-03 1.62985013e-03 1.06320006e-03
      1.01838238e-03 3.00842046e-04 2.13390100e-04 -1.83262455e-04</_>
    <_>
      -2.41946289e-03 1.54571258e-03 1.14840327e-03 -3.81627702e-04
      8.03193718e-04 1.74022210e-03 4.35846101e-04 2.51722895e-03
      2.11490272e-03 2.05529388e-03 2.32167449e-03 1.61600253e-03
      1.50017883e-03 1.12623803e-03 9.24948312e-04 5.88908442e-04
      6.08843286e-04 2.25399970e-04 5.07924706e-05 -1.16067473e-04</_>
    <_>
      -1.31745404e-03 -4.24098363e-03 4.71033202e-03 4.06846011e-05
      2.03041732e-03 3.13331978e-03 2.78407312e-03 5.40429447e-03
      4.64838045e-03 3.88577068e-03 1.83643564e-03 -3.02418927e-03
      -3.94558068e-04 -2.05360749e-03 7.24103884e-04 6.96943142e-04
      2.84312433e-03 4.96150460e-03 -2.36508553e-03 -4.09691158e-04</_>
    <_>
      -2.48461496e-03 1.83508697e-03 1.10067043e-03 -3.67530767e-04
      8.26334639e-04 1.88999856e-03 4.11614485e-04 2.68995436e-03
      2.24314863e-03 2.17553880e-03 2.59730779e-03 2.02605175e-03
      1.77245797e-03 1.45783660e-03 1.12538470e-03 7.37131457e-04
      7.65428529e-04 2.42549169e-04 3.60541511e-04 8.34575621e-05</_>
    <_>
      -2.42431415e-03 1.93631952e-03 1.21685187e-03 -2.01578398e-04
      1.14642119e-03 2.35456275e-03 9.71958507e-04 3.48928734e-03
      3.08180996e-03 3.10635869e-03 3.38479993e-03 2.67159613e-03
      2.34562345e-03 1.83874916e-03 1.37925323e-03 8.43656540e-04
      7.73119042e-04 1.10446708e-04 6.71701273e-05 -2.71732686e-04</_>
    <_>
      -2.33467715e-03 2.13882956e-03 1.44635350e-03 9.56713047e-05
      1.69281452e-03 3.16250278e-03 1.92871946e-03 4.89922473e-03
      4.52925172e-03 4.69439197e-03 4.74490924e-03 3.76776652e-03
      3.33535578e-03 2.50838650e-03 1.82271644e-03 1.04699377e-03
      8.19415785e-04 -7.77863315e-05 -4.15484945e-04 -8.83711909e-04</_>
    <_>
      -2.36149179e-03 1.95919443e-03 1.28988852e-03 -8.81929154e-05
      1.35149888e-03 2.55531445e-03 1.43257191e-03 3.95478541e-03
      3.62629304e-03 3.78089678e-03 3.89310112e-03 3.11754132e-03
      2.81569944e-03 2.19145115e-03 1.66951562e-03 1.08502712e-03
      1.02409674e-03 2.84225214e-04 1.08741107e-04 -2.90937664e-04</_>
    <_>
      -2.45393720e-03 1.89481734e-03 1.17696577e-03 -2.56608648e-04
      1.00889173e-03 2.14894000e-03 7.59853865e-04 3.17119504e-03
      2.73994030e-03 2.73914868e-03 3.05930316e-03 2.38705915e-03
      2.12108879e-03 1.69105094e-03 1.28407229e-03 8.26968811e-04
      7.99843750e-04 2.02665571e-04 2.14495230e-04 -1.14140217e-04</_>
    <_>
      -2.28108675e-03 1.97339244e-03 1.35559530e-03 3.09477036e-05
      1.58833747e-03 2.78413598e-03 1.93948217e-03 4.45273565e-03
      4.22688108e-03 4.50592861e-03 4.42293519e-03 3.56455194e-03
      3.24468059e-03 2.46321759e-03 1.85801112e-03 1.18851825e-03
      1.05100207e-03 2.39410496e-04 -1.11539324e-04 -5.58311876e-04</_>
    <_>
      -2.44226819e-03 1.91565976e-03 1.19134854e-03 -2.41395377e-04
      1.06206792e-03 2.23207125e-03 8.47370829e-04 3.29449121e-03
      2.88097793e-03 2.88556796e-03 3.19183525e-03 2.50639766e-03
      2.19337759e-03 1.70634629e-03 1.24327652e-03 7.11257395e-04
      6.05187961e-04 -4.34478279e-05 -1.22314261e-04 -4.44360136e-04</_>
    <_>
      -2.44187890e-03 1.92817720e-03 1.21435826e-03 -2.15580993e-04
      1.09073694e-03 2.27042497e-03 8.96026264e-04 3.37476563e-03
      2.94977985e-03 2.96393689e-03 3.25292815e-03 2.53791572e-03
      2.25195265e-03 1.77501899e-03 1.33153936e-03 8.36416730e-04
      7.77933281e-04 1.46117760e-04 1.13702496e-04 -2.29034515e-04</_>
    <_>
      -2.46083364e-03 1.88443868e-03 1.15149841e-03 -2.61892157e-04
      1.00636273e-03 2.17335159e-03 7.66549259e-04 3.21081327e-03
      2.78293295e-03 2.78285751e-03 3.12382053e-03 2.49230862e-03
      2.18540384e-03 1.74965267e-03 1.33837201e-03 8.48202035e-04
      8.07547360e-04 1.92946289e-04 1.95168424e-04 -1.80638512e-04</_>
    <_>
      -2.54675001e-03 1.72730465e-03 9.86731146e-04 -5.21153910e-04
      5.10976592e-04 1.42676558e-03 -1.12692069e-04 1.91434496e-03
      1.42422644e-03 1.26021681e-03 1.78877614e-03 1.30338164e-03
      1.09160389e-03 8.87927599e-04 6.13188604e-04 2.88547366e-04
      2.10533617e-04 -2.22532544e-04 -1.50852138e-04 -3.59238358e-04</_>
    <_>
      -2.51849671e-03 1.59785897e-03 8.46884097e-04 -5.07165911e-04
      3.84077779e-04 1.21901557e-03 -2.21341266e-04 1.66505715e-03
      1.15781324e-03 9.89320222e-04 1.51142164e-03 1.09958567e-03
      9.04938963e-04 7.20910553e-04 5.54493163e-04 3.32335243e-04
      2.75021244e-04 2.90809548e-05 1.76527072e-04 -5.73167345e-05</_>
    <_>
      -2.31912662e-03 3.71680188e-04 -7.66335637e-04 1.20612967e-04
      -9.83783626e-04 -5.93861914e-05 -1.31364749e-03 4.68801736e-04
      -7.86609075e-04 -1.00682524e-03 -1.57802075e-04 3.40619910e-04
      -9.96038434e-05 -2.05238612e-04 9.02053609e-04 1.49622816e-03
      1.78388797e-03 3.56707349e-03 4.40177415e-03 3.36528243e-03</_>
    <_>
      -2.76076607e-03 1.33635825e-03 5.28073404e-04 -1.14187505e-03
      -6.57532481e-04 -2.40915644e-04 -2.13960791e-03 -9.44607193e-04
      -1.52272824e-03 -1.88434939e-03 -7.82701885e-04 -5.23263647e-04
      -2.85875052e-04 4.66064317e-04 9.04134242e-04 1.41186267e-03
      2.54708459e-03 2.69194879e-03 3.94374039e-03 3.77781643e-03</_>
    <_>
      -2.49206647e-03 1.81391335e-03 1.07032724e-03 -3.85650317e-04
      7.68856611e-04 1.80508057e-03 3.33767035e-04 2.56542279e-03
      2.10809475e-03 2.02413788e-03 2.46496825e-03 1.91792694e-03
      1.66450685e-03 1.36893336e-03 1.04887737e-03 6.71815185e-04
      6.78776647e-04 1.89129845e-04 3.21893662e-04 5.23565104e-05</_>
    <_>
      -2.47458392e-03 1.88469468e-03 1.15583290e-03 -3.05951398e-04
      9.26928013e-04 2.04531243e-03 5.86539449e-04 2.96465983e-03
      2.50958977e-03 2.46278779e-03 2.84912670e-03 2.21770862e-03
      1.95050961e-03 1.57692237e-03 1.19605416e-03 7.61761621e-04
      7.52139546e-04 1.83335738e-04 2.46939773e-04 -4.55070403e-05</_>
    <_>
      -2.60789273e-03 1.62898074e-03 8.60934262e-04 -6.99008408e-04
      1.77581911e-04 9.55150928e-04 -7.33978522e-04 1.05528929e-03
      5.06818760e-04 2.09074467e-04 9.16361692e-04 5.88906463e-04
      4.03805170e-04 3.79619421e-04 2.28178338e-04 2.62258109e-05
      2.61666719e-06 -2.62811838e-04 -1.04293576e-05 -9.04234475e-05</_>
    <_>
      -2.54162215e-03 1.73667446e-03 9.95228998e-04 -5.09426696e-04
      5.29497978e-04 1.44751952e-03 -8.10284837e-05 1.95616647e-03
      1.47000398e-03 1.31364795e-03 1.83716975e-03 1.35112065e-03
      1.15079456e-03 9.62639984e-04 7.02134799e-04 4.04360326e-04
      3.76536569e-04 -3.61600542e-05 1.04211620e-04 -1.10044144e-04</_>
    <_>
      -2.48367013e-03 1.83691946e-03 1.10638817e-03 -3.60779930e-04
      8.35439365e-04 1.90672011e-03 4.32580826e-04 2.72072945e-03
      2.27442896e-03 2.21182592e-03 2.62669288e-03 2.04980304e-03
      1.79678923e-03 1.47803733e-03 1.14701351e-03 7.48243998e-04
      7.81485403e-04 2.61236273e-04 3.75271367e-04 9.12485411e-05</_>
    <_>
      -2.40450329e-03 1.97272608e-03 1.26304314e-03 -1.39668497e-04
      1.25841587e-03 2.52131419e-03 1.17387390e-03 3.78061272e-03
      3.38509236e-03 3.44795780e-03 3.67560238e-03 2.91721569e-03
      2.58099893e-03 2.02243007e-03 1.53719867e-03 9.61547601e-04
      9.06016678e-04 2.15203618e-04 1.55018002e-04 -2.14796863e-04</_>
    <_>
      -2.35450454e-03 2.10271124e-03 1.40511338e-03 3.81301215e-05
      1.58382731e-03 3.00117140e-03 1.73979485e-03 4.62522823e-03
      4.24624374e-03 4.38344013e-03 4.48028324e-03 3.55123007e-03
      3.14597366e-03 2.39112042e-03 1.75124267e-03 1.02946360e-03
      8.38489737e-04 -1.13548595e-05 -2.82715366e-04 -7.34934583e-04</_>
    <_>
      -2.49222969e-03 1.82510982e-03 1.09724875e-03 -3.64692038e-04
      8.03372764e-04 1.85359502e-03 4.01283556e-04 2.65636039e-03
      2.20001768e-03 2.14006566e-03 2.54884246e-03 1.96501939e-03
      1.73105311e-03 1.40182534e-03 1.06027443e-03 6.70011039e-04
      6.60759339e-04 1.32768706e-04 1.96404755e-04 -8.21267022e-05</_>
    <_>
      -2.41182838e-03 1.73718971e-03 1.08233560e-03 -3.42913263e-04
      8.82340013e-04 1.76360179e-03 6.94094226e-04 2.66107311e-03
      2.34315707e-03 2.38965568e-03 2.61797733e-03 2.04827334e-03
      1.83078984e-03 1.39890215e-03 1.02545787e-03 5.81051980e-04
      4.78046248e-04 -7.93157960e-05 -2.54957704e-04 -5.13685169e-04</_>
    <_>
      -2.53857975e-03 1.74139545e-03 9.93805588e-04 -5.15188323e-04
      5.41144109e-04 1.47393811e-03 -6.85610576e-05 1.97582110e-03
      1.49773317e-03 1.33405288e-03 1.86441373e-03 1.38898520e-03
      1.15313125e-03 9.34830809e-04 6.43393607e-04 2.91000411e-04
      2.13816704e-04 -2.29252095e-04 -1.46627950e-04 -3.43779277e-04</_>
    <_>
      -2.39024474e-03 2.02177325e-03 1.32021867e-03 -6.95386625e-05
      1.36801461e-03 2.67365598e-03 1.38172880e-03 4.07368271e-03
      3.68112139e-03 3.78165510e-03 3.95345315e-03 3.12750530e-03
      2.80215195e-03 2.18468462e-03 1.65329594e-03 1.06784736e-03
      1.00175175e-03 2.65990850e-04 1.58995856e-04 -2.46204843e-04</_>
    <_>
      -2.44041043e-03 1.92172814e-03 1.19708886e-03 -1.97800662e-04
