<?xml version="1.0"?>
<opencv_storage>
<my_svm type_id="opencv-ml-svm">
  <svm_type>C_SVC</svm_type>
  <kernel><type>LINEAR</type></kernel>
  <C>3.1250000000000000e+02</C>
  <term_criteria><epsilon>9.9999997473787516e-06</epsilon>
    <iterations>2147483647</iterations></term_criteria>
  <var_all>18</var_all>
  <var_count>18</var_count>
  <class_count>2</class_count>
  <class_labels type_id="opencv-matrix">
    <rows>1</rows>
    <cols>2</cols>
    <dt>i</dt>
    <data>
      -1 1</data></class_labels>
  <sv_total>1</sv_total>
  <support_vectors>
    <_>
      -4.36856728e+01 -1.51854858e+01 -5.40741577e+01 -6.99947586e+01
      -4.57323265e+01 -4.92724075e+01 -5.31739998e+01 -3.43020363e+01
      -3.21282883e+01 -2.98362045e+01 -2.06966782e+01 -1.75092201e+01
      -1.10318995e+01 -1.21554813e+01 -1.11929550e+01 -7.64583492e+00
      -1.36204910e+01 -8.82568741e+00</_></support_vectors>
  <decision_functions>
    <_>
      <sv_count>1</sv_count>
      <rho>-1.2933122496564167e-01</rho>
      <alpha>
        1.</alpha>
      <index>
        0</index></_></decision_functions></my_svm>
</opencv_storage>
